%YAML:1.0
---
opencv_ml_svm:
   format: 3
   svmType: C_SVC
   kernel:
      type: POLY
      degree: 5.0000000000000000e-01
      gamma: 1.
      coef0: 1.
   C: 10.
   term_criteria: { epsilon:1.0000000000000000e-02, iterations:1000 }
   var_count: 2
   class_count: 5
   class_labels: !!opencv-matrix
      rows: 5
      cols: 1
      dt: i
      data: [ 0, 1, 2, 3, 4 ]
   sv_total: 2905
   support_vectors:
      - [ 128., 136. ]
      - [ 128., 136. ]
      - [ 128., 136. ]
      - [ 128., 136. ]
      - [ 128., 136. ]
      - [ 128., 136. ]
      - [ 128., 136. ]
      - [ 128., 136. ]
      - [ 131., 132. ]
      - [ 131., 132. ]
      - [ 131., 132. ]
      - [ 131., 132. ]
      - [ 128., 136. ]
      - [ 128., 136. ]
      - [ 128., 136. ]
      - [ 128., 136. ]
      - [ 128., 136. ]
      - [ 128., 136. ]
      - [ 128., 136. ]
      - [ 128., 136. ]
      - [ 128., 136. ]
      - [ 128., 136. ]
      - [ 126., 134. ]
      - [ 126., 134. ]
      - [ 126., 134. ]
      - [ 126., 134. ]
      - [ 126., 134. ]
      - [ 126., 134. ]
      - [ 126., 134. ]
      - [ 126., 134. ]
      - [ 126., 134. ]
      - [ 128., 133. ]
      - [ 128., 133. ]
      - [ 127., 135. ]
      - [ 128., 133. ]
      - [ 128., 136. ]
      - [ 128., 136. ]
      - [ 128., 136. ]
      - [ 128., 136. ]
      - [ 128., 136. ]
      - [ 128., 136. ]
      - [ 128., 136. ]
      - [ 128., 136. ]
      - [ 127., 134. ]
      - [ 129., 136. ]
      - [ 129., 136. ]
      - [ 129., 136. ]
      - [ 129., 136. ]
      - [ 130., 136. ]
      - [ 130., 136. ]
      - [ 130., 136. ]
      - [ 128., 136. ]
      - [ 128., 136. ]
      - [ 128., 136. ]
      - [ 128., 136. ]
      - [ 128., 136. ]
      - [ 128., 136. ]
      - [ 128., 136. ]
      - [ 128., 136. ]
      - [ 128., 136. ]
      - [ 128., 136. ]
      - [ 128., 136. ]
      - [ 128., 136. ]
      - [ 128., 136. ]
      - [ 128., 136. ]
      - [ 128., 136. ]
      - [ 128., 136. ]
      - [ 128., 136. ]
      - [ 128., 136. ]
      - [ 128., 136. ]
      - [ 128., 136. ]
      - [ 128., 136. ]
      - [ 128., 136. ]
      - [ 128., 136. ]
      - [ 128., 136. ]
      - [ 128., 136. ]
      - [ 128., 136. ]
      - [ 128., 136. ]
      - [ 128., 136. ]
      - [ 128., 136. ]
      - [ 128., 136. ]
      - [ 128., 136. ]
      - [ 128., 136. ]
      - [ 128., 136. ]
      - [ 128., 136. ]
      - [ 128., 136. ]
      - [ 128., 136. ]
      - [ 128., 136. ]
      - [ 128., 136. ]
      - [ 128., 136. ]
      - [ 128., 136. ]
      - [ 128., 136. ]
      - [ 128., 136. ]
      - [ 128., 136. ]
      - [ 128., 136. ]
      - [ 128., 136. ]
      - [ 128., 136. ]
      - [ 128., 136. ]
      - [ 128., 136. ]
      - [ 128., 136. ]
      - [ 128., 136. ]
      - [ 128., 136. ]
      - [ 128., 136. ]
      - [ 128., 136. ]
      - [ 128., 136. ]
      - [ 128., 136. ]
      - [ 128., 136. ]
      - [ 128., 136. ]
      - [ 128., 136. ]
      - [ 128., 136. ]
      - [ 128., 136. ]
      - [ 128., 136. ]
      - [ 128., 136. ]
      - [ 128., 136. ]
      - [ 128., 136. ]
      - [ 128., 136. ]
      - [ 128., 136. ]
      - [ 128., 136. ]
      - [ 128., 136. ]
      - [ 128., 136. ]
      - [ 128., 136. ]
      - [ 128., 136. ]
      - [ 128., 136. ]
      - [ 128., 136. ]
      - [ 128., 136. ]
      - [ 128., 136. ]
      - [ 128., 136. ]
      - [ 128., 136. ]
      - [ 128., 136. ]
      - [ 128., 136. ]
      - [ 128., 136. ]
      - [ 128., 136. ]
      - [ 128., 136. ]
      - [ 128., 136. ]
      - [ 128., 136. ]
      - [ 128., 136. ]
      - [ 128., 136. ]
      - [ 128., 136. ]
      - [ 128., 136. ]
      - [ 128., 136. ]
      - [ 128., 136. ]
      - [ 128., 136. ]
      - [ 128., 136. ]
      - [ 128., 136. ]
      - [ 128., 136. ]
      - [ 128., 136. ]
      - [ 128., 136. ]
      - [ 128., 136. ]
      - [ 128., 136. ]
      - [ 128., 136. ]
      - [ 128., 136. ]
      - [ 128., 136. ]
      - [ 128., 136. ]
      - [ 128., 136. ]
      - [ 128., 136. ]
      - [ 128., 136. ]
      - [ 128., 136. ]
      - [ 128., 136. ]
      - [ 128., 136. ]
      - [ 128., 136. ]
      - [ 128., 136. ]
      - [ 128., 136. ]
      - [ 128., 136. ]
      - [ 128., 136. ]
      - [ 128., 136. ]
      - [ 128., 136. ]
      - [ 128., 136. ]
      - [ 141., 137. ]
      - [ 135., 137. ]
      - [ 134., 137. ]
      - [ 134., 137. ]
      - [ 134., 137. ]
      - [ 132., 137. ]
      - [ 132., 137. ]
      - [ 141., 136. ]
      - [ 141., 136. ]
      - [ 141., 137. ]
      - [ 141., 137. ]
      - [ 140., 136. ]
      - [ 140., 136. ]
      - [ 136., 136. ]
      - [ 136., 136. ]
      - [ 135., 136. ]
      - [ 135., 136. ]
      - [ 135., 136. ]
      - [ 134., 137. ]
      - [ 134., 137. ]
      - [ 134., 137. ]
      - [ 134., 136. ]
      - [ 133., 136. ]
      - [ 133., 136. ]
      - [ 132., 137. ]
      - [ 132., 137. ]
      - [ 141., 136. ]
      - [ 141., 136. ]
      - [ 140., 136. ]
      - [ 140., 136. ]
      - [ 135., 136. ]
      - [ 135., 137. ]
      - [ 134., 137. ]
      - [ 134., 137. ]
      - [ 134., 137. ]
      - [ 134., 137. ]
      - [ 133., 136. ]
      - [ 133., 136. ]
      - [ 132., 137. ]
      - [ 140., 136. ]
      - [ 136., 136. ]
      - [ 135., 137. ]
      - [ 135., 137. ]
      - [ 135., 136. ]
      - [ 134., 137. ]
      - [ 134., 137. ]
      - [ 134., 137. ]
      - [ 133., 136. ]
      - [ 133., 136. ]
      - [ 143., 136. ]
      - [ 143., 136. ]
      - [ 142., 136. ]
      - [ 142., 136. ]
      - [ 142., 136. ]
      - [ 141., 136. ]
      - [ 141., 137. ]
      - [ 140., 136. ]
      - [ 140., 136. ]
      - [ 139., 136. ]
      - [ 139., 136. ]
      - [ 139., 136. ]
      - [ 138., 136. ]
      - [ 138., 136. ]
      - [ 138., 136. ]
      - [ 138., 136. ]
      - [ 137., 136. ]
      - [ 137., 136. ]
      - [ 137., 136. ]
      - [ 136., 136. ]
      - [ 135., 137. ]
      - [ 135., 137. ]
      - [ 135., 137. ]
      - [ 134., 137. ]
      - [ 134., 137. ]
      - [ 134., 137. ]
      - [ 134., 137. ]
      - [ 134., 136. ]
      - [ 133., 136. ]
      - [ 143., 136. ]
      - [ 143., 136. ]
      - [ 143., 136. ]
      - [ 142., 136. ]
      - [ 141., 136. ]
      - [ 141., 136. ]
      - [ 140., 136. ]
      - [ 140., 136. ]
      - [ 139., 136. ]
      - [ 139., 136. ]
      - [ 139., 136. ]
      - [ 136., 136. ]
      - [ 136., 136. ]
      - [ 136., 136. ]
      - [ 135., 137. ]
      - [ 135., 137. ]
      - [ 134., 137. ]
      - [ 134., 137. ]
      - [ 134., 137. ]
      - [ 134., 136. ]
      - [ 134., 136. ]
      - [ 144., 136. ]
      - [ 143., 136. ]
      - [ 135., 137. ]
      - [ 135., 137. ]
      - [ 135., 137. ]
      - [ 134., 137. ]
      - [ 134., 137. ]
      - [ 134., 137. ]
      - [ 144., 136. ]
      - [ 144., 136. ]
      - [ 135., 137. ]
      - [ 135., 137. ]
      - [ 134., 137. ]
      - [ 134., 137. ]
      - [ 134., 137. ]
      - [ 134., 137. ]
      - [ 144., 136. ]
      - [ 144., 136. ]
      - [ 144., 136. ]
      - [ 144., 136. ]
      - [ 143., 136. ]
      - [ 143., 136. ]
      - [ 143., 136. ]
      - [ 143., 136. ]
      - [ 141., 137. ]
      - [ 135., 137. ]
      - [ 135., 137. ]
      - [ 135., 137. ]
      - [ 135., 137. ]
      - [ 134., 137. ]
      - [ 134., 137. ]
      - [ 132., 136. ]
      - [ 131., 136. ]
      - [ 131., 136. ]
      - [ 131., 136. ]
      - [ 131., 136. ]
      - [ 144., 136. ]
      - [ 145., 136. ]
      - [ 144., 136. ]
      - [ 144., 136. ]
      - [ 144., 136. ]
      - [ 143., 136. ]
      - [ 143., 136. ]
      - [ 143., 136. ]
      - [ 141., 137. ]
      - [ 141., 137. ]
      - [ 135., 137. ]
      - [ 135., 137. ]
      - [ 135., 137. ]
      - [ 134., 137. ]
      - [ 134., 137. ]
      - [ 132., 136. ]
      - [ 145., 136. ]
      - [ 145., 136. ]
      - [ 145., 136. ]
      - [ 144., 136. ]
      - [ 144., 136. ]
      - [ 144., 136. ]
      - [ 135., 137. ]
      - [ 135., 137. ]
      - [ 145., 136. ]
      - [ 145., 136. ]
      - [ 145., 136. ]
      - [ 145., 136. ]
      - [ 144., 136. ]
      - [ 144., 136. ]
      - [ 144., 136. ]
      - [ 135., 137. ]
      - [ 135., 137. ]
      - [ 135., 137. ]
      - [ 146., 136. ]
      - [ 146., 136. ]
      - [ 145., 136. ]
      - [ 145., 136. ]
      - [ 145., 136. ]
      - [ 144., 136. ]
      - [ 144., 136. ]
      - [ 144., 136. ]
      - [ 135., 137. ]
      - [ 146., 136. ]
      - [ 146., 136. ]
      - [ 146., 136. ]
      - [ 145., 136. ]
      - [ 145., 136. ]
      - [ 145., 136. ]
      - [ 145., 136. ]
      - [ 144., 136. ]
      - [ 144., 136. ]
      - [ 144., 136. ]
      - [ 144., 136. ]
      - [ 141., 137. ]
      - [ 135., 137. ]
      - [ 135., 137. ]
      - [ 147., 136. ]
      - [ 147., 136. ]
      - [ 147., 136. ]
      - [ 146., 136. ]
      - [ 146., 136. ]
      - [ 145., 136. ]
      - [ 145., 136. ]
      - [ 145., 136. ]
      - [ 145., 136. ]
      - [ 144., 136. ]
      - [ 144., 136. ]
      - [ 144., 136. ]
      - [ 144., 136. ]
      - [ 141., 137. ]
      - [ 141., 137. ]
      - [ 141., 137. ]
      - [ 147., 136. ]
      - [ 147., 136. ]
      - [ 147., 136. ]
      - [ 147., 136. ]
      - [ 146., 136. ]
      - [ 146., 136. ]
      - [ 146., 136. ]
      - [ 145., 136. ]
      - [ 145., 136. ]
      - [ 145., 136. ]
      - [ 145., 136. ]
      - [ 141., 137. ]
      - [ 141., 137. ]
      - [ 147., 136. ]
      - [ 147., 136. ]
      - [ 147., 136. ]
      - [ 147., 136. ]
      - [ 147., 136. ]
      - [ 146., 136. ]
      - [ 146., 136. ]
      - [ 146., 136. ]
      - [ 146., 136. ]
      - [ 145., 136. ]
      - [ 145., 136. ]
      - [ 145., 136. ]
      - [ 148., 136. ]
      - [ 148., 136. ]
      - [ 147., 136. ]
      - [ 147., 136. ]
      - [ 147., 136. ]
      - [ 147., 136. ]
      - [ 147., 136. ]
      - [ 146., 136. ]
      - [ 146., 136. ]
      - [ 146., 136. ]
      - [ 145., 136. ]
      - [ 145., 136. ]
      - [ 145., 136. ]
      - [ 147., 136. ]
      - [ 148., 136. ]
      - [ 148., 136. ]
      - [ 147., 136. ]
      - [ 147., 136. ]
      - [ 147., 136. ]
      - [ 147., 136. ]
      - [ 147., 136. ]
      - [ 146., 136. ]
      - [ 146., 136. ]
      - [ 146., 136. ]
      - [ 145., 136. ]
      - [ 145., 136. ]
      - [ 145., 136. ]
      - [ 145., 136. ]
      - [ 148., 136. ]
      - [ 148., 136. ]
      - [ 147., 136. ]
      - [ 147., 136. ]
      - [ 147., 136. ]
      - [ 147., 136. ]
      - [ 147., 136. ]
      - [ 147., 136. ]
      - [ 146., 136. ]
      - [ 146., 136. ]
      - [ 146., 136. ]
      - [ 146., 136. ]
      - [ 145., 136. ]
      - [ 145., 136. ]
      - [ 145., 136. ]
      - [ 144., 136. ]
      - [ 149., 136. ]
      - [ 149., 136. ]
      - [ 149., 136. ]
      - [ 149., 136. ]
      - [ 148., 136. ]
      - [ 148., 136. ]
      - [ 147., 136. ]
      - [ 147., 136. ]
      - [ 147., 136. ]
      - [ 147., 136. ]
      - [ 146., 136. ]
      - [ 146., 136. ]
      - [ 146., 136. ]
      - [ 146., 136. ]
      - [ 145., 136. ]
      - [ 144., 136. ]
      - [ 141., 137. ]
      - [ 150., 136. ]
      - [ 150., 136. ]
      - [ 150., 136. ]
      - [ 149., 136. ]
      - [ 149., 136. ]
      - [ 148., 136. ]
      - [ 148., 136. ]
      - [ 148., 136. ]
      - [ 147., 136. ]
      - [ 147., 136. ]
      - [ 147., 136. ]
      - [ 146., 136. ]
      - [ 146., 136. ]
      - [ 146., 136. ]
      - [ 146., 136. ]
      - [ 145., 136. ]
      - [ 144., 136. ]
      - [ 141., 137. ]
      - [ 126., 135. ]
      - [ 151., 136. ]
      - [ 151., 136. ]
      - [ 151., 136. ]
      - [ 150., 136. ]
      - [ 150., 136. ]
      - [ 150., 136. ]
      - [ 150., 136. ]
      - [ 149., 136. ]
      - [ 149., 136. ]
      - [ 147., 136. ]
      - [ 148., 136. ]
      - [ 147., 136. ]
      - [ 147., 136. ]
      - [ 147., 136. ]
      - [ 147., 136. ]
      - [ 146., 136. ]
      - [ 145., 136. ]
      - [ 144., 136. ]
      - [ 144., 136. ]
      - [ 144., 136. ]
      - [ 144., 136. ]
      - [ 132., 136. ]
      - [ 152., 136. ]
      - [ 151., 136. ]
      - [ 151., 136. ]
      - [ 151., 136. ]
      - [ 151., 136. ]
      - [ 151., 136. ]
      - [ 150., 136. ]
      - [ 150., 136. ]
      - [ 149., 136. ]
      - [ 149., 136. ]
      - [ 147., 136. ]
      - [ 148., 136. ]
      - [ 147., 136. ]
      - [ 147., 136. ]
      - [ 147., 136. ]
      - [ 146., 136. ]
      - [ 146., 136. ]
      - [ 145., 136. ]
      - [ 145., 136. ]
      - [ 145., 136. ]
      - [ 144., 136. ]
      - [ 144., 136. ]
      - [ 132., 136. ]
      - [ 152., 136. ]
      - [ 151., 136. ]
      - [ 151., 136. ]
      - [ 151., 136. ]
      - [ 151., 136. ]
      - [ 151., 136. ]
      - [ 150., 136. ]
      - [ 150., 136. ]
      - [ 149., 136. ]
      - [ 149., 136. ]
      - [ 148., 136. ]
      - [ 148., 136. ]
      - [ 147., 136. ]
      - [ 147., 136. ]
      - [ 147., 136. ]
      - [ 146., 136. ]
      - [ 146., 136. ]
      - [ 145., 136. ]
      - [ 145., 136. ]
      - [ 145., 136. ]
      - [ 144., 136. ]
      - [ 144., 136. ]
      - [ 141., 137. ]
      - [ 152., 136. ]
      - [ 151., 136. ]
      - [ 151., 136. ]
      - [ 151., 136. ]
      - [ 151., 136. ]
      - [ 151., 136. ]
      - [ 150., 136. ]
      - [ 150., 136. ]
      - [ 149., 136. ]
      - [ 149., 136. ]
      - [ 147., 136. ]
      - [ 148., 136. ]
      - [ 147., 136. ]
      - [ 147., 136. ]
      - [ 147., 136. ]
      - [ 146., 136. ]
      - [ 146., 136. ]
      - [ 145., 136. ]
      - [ 145., 136. ]
      - [ 145., 136. ]
      - [ 144., 136. ]
      - [ 144., 136. ]
      - [ 141., 137. ]
      - [ 152., 136. ]
      - [ 152., 136. ]
      - [ 151., 136. ]
      - [ 151., 136. ]
      - [ 151., 136. ]
      - [ 151., 136. ]
      - [ 150., 136. ]
      - [ 150., 136. ]
      - [ 149., 136. ]
      - [ 149., 136. ]
      - [ 148., 136. ]
      - [ 148., 136. ]
      - [ 147., 136. ]
      - [ 147., 136. ]
      - [ 147., 136. ]
      - [ 146., 136. ]
      - [ 146., 136. ]
      - [ 145., 136. ]
      - [ 145., 136. ]
      - [ 145., 136. ]
      - [ 144., 136. ]
      - [ 144., 136. ]
      - [ 152., 136. ]
      - [ 152., 136. ]
      - [ 152., 136. ]
      - [ 152., 136. ]
      - [ 151., 136. ]
      - [ 151., 136. ]
      - [ 150., 136. ]
      - [ 150., 136. ]
      - [ 149., 136. ]
      - [ 149., 136. ]
      - [ 148., 136. ]
      - [ 147., 136. ]
      - [ 147., 136. ]
      - [ 147., 136. ]
      - [ 147., 136. ]
      - [ 146., 136. ]
      - [ 146., 136. ]
      - [ 145., 136. ]
      - [ 145., 136. ]
      - [ 145., 136. ]
      - [ 144., 136. ]
      - [ 144., 136. ]
      - [ 141., 137. ]
      - [ 141., 137. ]
      - [ 155., 117. ]
      - [ 156., 117. ]
      - [ 157., 118. ]
      - [ 158., 119. ]
      - [ 160., 120. ]
      - [ 162., 121. ]
      - [ 163., 122. ]
      - [ 153., 116. ]
      - [ 154., 116. ]
      - [ 155., 116. ]
      - [ 155., 116. ]
      - [ 155., 117. ]
      - [ 154., 116. ]
      - [ 156., 117. ]
      - [ 157., 118. ]
      - [ 155., 116. ]
      - [ 156., 117. ]
      - [ 158., 119. ]
      - [ 154., 116. ]
      - [ 155., 117. ]
      - [ 153., 116. ]
      - [ 155., 117. ]
      - [ 153., 116. ]
      - [ 153., 116. ]
      - [ 129., 127. ]
      - [ 153., 116. ]
      - [ 154., 116. ]
      - [ 130., 127. ]
      - [ 130., 127. ]
      - [ 130., 127. ]
      - [ 130., 127. ]
      - [ 130., 127. ]
      - [ 151., 115. ]
      - [ 151., 115. ]
      - [ 151., 115. ]
      - [ 153., 116. ]
      - [ 130., 127. ]
      - [ 130., 127. ]
      - [ 149., 114. ]
      - [ 150., 114. ]
      - [ 150., 115. ]
      - [ 151., 115. ]
      - [ 152., 115. ]
      - [ 153., 116. ]
      - [ 133., 122. ]
      - [ 148., 114. ]
      - [ 150., 114. ]
      - [ 150., 115. ]
      - [ 151., 115. ]
      - [ 151., 115. ]
      - [ 153., 116. ]
      - [ 150., 114. ]
      - [ 154., 116. ]
      - [ 154., 116. ]
      - [ 155., 116. ]
      - [ 153., 116. ]
      - [ 150., 115. ]
      - [ 153., 116. ]
      - [ 155., 117. ]
      - [ 144., 114. ]
      - [ 150., 115. ]
      - [ 153., 116. ]
      - [ 153., 116. ]
      - [ 154., 116. ]
      - [ 155., 117. ]
      - [ 155., 117. ]
      - [ 138., 117. ]
      - [ 143., 114. ]
      - [ 144., 114. ]
      - [ 145., 114. ]
      - [ 148., 114. ]
      - [ 150., 115. ]
      - [ 151., 115. ]
      - [ 152., 115. ]
      - [ 153., 116. ]
      - [ 154., 116. ]
      - [ 153., 116. ]
      - [ 154., 116. ]
      - [ 154., 116. ]
      - [ 155., 117. ]
      - [ 155., 117. ]
      - [ 156., 117. ]
      - [ 147., 114. ]
      - [ 149., 114. ]
      - [ 150., 115. ]
      - [ 150., 115. ]
      - [ 152., 115. ]
      - [ 152., 115. ]
      - [ 153., 116. ]
      - [ 154., 116. ]
      - [ 155., 117. ]
      - [ 156., 117. ]
      - [ 156., 117. ]
      - [ 156., 117. ]
      - [ 157., 118. ]
      - [ 158., 119. ]
      - [ 160., 120. ]
      - [ 150., 115. ]
      - [ 151., 115. ]
      - [ 152., 115. ]
      - [ 153., 115. ]
      - [ 154., 115. ]
      - [ 155., 116. ]
      - [ 155., 116. ]
      - [ 155., 117. ]
      - [ 157., 118. ]
      - [ 157., 118. ]
      - [ 157., 118. ]
      - [ 157., 118. ]
      - [ 158., 119. ]
      - [ 158., 119. ]
      - [ 158., 119. ]
      - [ 151., 115. ]
      - [ 151., 115. ]
      - [ 153., 116. ]
      - [ 153., 116. ]
      - [ 153., 116. ]
      - [ 155., 115. ]
      - [ 155., 116. ]
      - [ 155., 116. ]
      - [ 157., 116. ]
      - [ 158., 117. ]
      - [ 159., 117. ]
      - [ 158., 118. ]
      - [ 158., 118. ]
      - [ 159., 118. ]
      - [ 159., 118. ]
      - [ 159., 119. ]
      - [ 160., 120. ]
      - [ 161., 121. ]
      - [ 155., 117. ]
      - [ 151., 115. ]
      - [ 151., 115. ]
      - [ 151., 115. ]
      - [ 151., 115. ]
      - [ 151., 115. ]
      - [ 151., 115. ]
      - [ 151., 115. ]
      - [ 151., 115. ]
      - [ 152., 115. ]
      - [ 152., 115. ]
      - [ 154., 116. ]
      - [ 155., 115. ]
      - [ 154., 116. ]
      - [ 154., 116. ]
      - [ 155., 116. ]
      - [ 157., 116. ]
      - [ 157., 117. ]
      - [ 158., 117. ]
      - [ 159., 118. ]
      - [ 159., 118. ]
      - [ 159., 119. ]
      - [ 159., 119. ]
      - [ 160., 119. ]
      - [ 160., 120. ]
      - [ 160., 120. ]
      - [ 160., 120. ]
      - [ 160., 120. ]
      - [ 156., 118. ]
      - [ 155., 117. ]
      - [ 155., 117. ]
      - [ 153., 116. ]
      - [ 153., 116. ]
      - [ 153., 116. ]
      - [ 153., 116. ]
      - [ 153., 116. ]
      - [ 153., 116. ]
      - [ 153., 116. ]
      - [ 153., 116. ]
      - [ 153., 116. ]
      - [ 153., 116. ]
      - [ 153., 116. ]
      - [ 153., 116. ]
      - [ 153., 116. ]
      - [ 153., 116. ]
      - [ 153., 116. ]
      - [ 153., 116. ]
      - [ 154., 116. ]
      - [ 155., 116. ]
      - [ 155., 116. ]
      - [ 155., 116. ]
      - [ 157., 116. ]
      - [ 157., 116. ]
      - [ 157., 117. ]
      - [ 158., 117. ]
      - [ 158., 118. ]
      - [ 158., 119. ]
      - [ 159., 119. ]
      - [ 160., 120. ]
      - [ 160., 120. ]
      - [ 161., 120. ]
      - [ 161., 120. ]
      - [ 161., 121. ]
      - [ 161., 121. ]
      - [ 162., 121. ]
      - [ 162., 121. ]
      - [ 158., 119. ]
      - [ 155., 117. ]
      - [ 155., 117. ]
      - [ 155., 117. ]
      - [ 155., 117. ]
      - [ 155., 116. ]
      - [ 155., 116. ]
      - [ 155., 116. ]
      - [ 156., 116. ]
      - [ 156., 116. ]
      - [ 156., 116. ]
      - [ 156., 116. ]
      - [ 156., 116. ]
      - [ 156., 116. ]
      - [ 156., 116. ]
      - [ 157., 116. ]
      - [ 157., 117. ]
      - [ 158., 118. ]
      - [ 158., 118. ]
      - [ 158., 118. ]
      - [ 159., 119. ]
      - [ 160., 120. ]
      - [ 160., 120. ]
      - [ 161., 120. ]
      - [ 161., 121. ]
      - [ 162., 121. ]
      - [ 161., 121. ]
      - [ 161., 121. ]
      - [ 161., 121. ]
      - [ 163., 122. ]
      - [ 163., 122. ]
      - [ 158., 119. ]
      - [ 158., 119. ]
      - [ 158., 119. ]
      - [ 158., 118. ]
      - [ 158., 117. ]
      - [ 158., 117. ]
      - [ 158., 117. ]
      - [ 158., 117. ]
      - [ 158., 117. ]
      - [ 159., 117. ]
      - [ 158., 117. ]
      - [ 158., 117. ]
      - [ 158., 118. ]
      - [ 159., 118. ]
      - [ 159., 118. ]
      - [ 158., 119. ]
      - [ 159., 119. ]
      - [ 160., 120. ]
      - [ 162., 121. ]
      - [ 162., 121. ]
      - [ 162., 121. ]
      - [ 162., 121. ]
      - [ 163., 121. ]
      - [ 163., 122. ]
      - [ 163., 122. ]
      - [ 163., 122. ]
      - [ 159., 119. ]
      - [ 159., 119. ]
      - [ 159., 119. ]
      - [ 159., 118. ]
      - [ 160., 118. ]
      - [ 159., 119. ]
      - [ 159., 118. ]
      - [ 159., 118. ]
      - [ 159., 118. ]
      - [ 159., 119. ]
      - [ 159., 119. ]
      - [ 159., 118. ]
      - [ 159., 118. ]
      - [ 159., 118. ]
      - [ 159., 118. ]
      - [ 159., 118. ]
      - [ 160., 118. ]
      - [ 160., 118. ]
      - [ 159., 119. ]
      - [ 160., 120. ]
      - [ 160., 120. ]
      - [ 161., 121. ]
      - [ 161., 121. ]
      - [ 163., 122. ]
      - [ 163., 122. ]
      - [ 163., 122. ]
      - [ 163., 122. ]
      - [ 161., 120. ]
      - [ 161., 119. ]
      - [ 161., 120. ]
      - [ 161., 120. ]
      - [ 160., 120. ]
      - [ 161., 120. ]
      - [ 132., 145. ]
      - [ 129., 147. ]
      - [ 124., 146. ]
      - [ 129., 146. ]
      - [ 122., 149. ]
      - [ 119., 147. ]
      - [ 136., 152. ]
      - [ 130., 149. ]
      - [ 125., 145. ]
      - [ 119., 149. ]
      - [ 116., 148. ]
      - [ 137., 153. ]
      - [ 130., 152. ]
      - [ 126., 149. ]
      - [ 121., 147. ]
      - [ 117., 149. ]
      - [ 116., 146. ]
      - [ 137., 153. ]
      - [ 131., 152. ]
      - [ 127., 148. ]
      - [ 124., 147. ]
      - [ 120., 150. ]
      - [ 118., 147. ]
      - [ 118., 147. ]
      - [ 132., 153. ]
      - [ 127., 152. ]
      - [ 125., 147. ]
      - [ 121., 147. ]
      - [ 119., 150. ]
      - [ 119., 151. ]
      - [ 117., 151. ]
      - [ 132., 154. ]
      - [ 126., 153. ]
      - [ 123., 152. ]
      - [ 122., 150. ]
      - [ 120., 150. ]
      - [ 120., 152. ]
      - [ 120., 153. ]
      - [ 121., 153. ]
      - [ 186., 152. ]
      - [ 188., 158. ]
      - [ 187., 163. ]
      - [ 182., 144. ]
      - [ 182., 144. ]
      - [ 182., 144. ]
      - [ 182., 144. ]
      - [ 182., 144. ]
      - [ 182., 144. ]
      - [ 182., 144. ]
      - [ 182., 144. ]
      - [ 182., 144. ]
      - [ 182., 144. ]
      - [ 182., 144. ]
      - [ 182., 144. ]
      - [ 182., 144. ]
      - [ 182., 144. ]
      - [ 182., 144. ]
      - [ 182., 144. ]
      - [ 182., 144. ]
      - [ 182., 144. ]
      - [ 182., 144. ]
      - [ 182., 144. ]
      - [ 182., 144. ]
      - [ 182., 144. ]
      - [ 185., 192. ]
      - [ 183., 192. ]
      - [ 166., 190. ]
      - [ 167., 190. ]
      - [ 167., 190. ]
      - [ 167., 190. ]
      - [ 167., 190. ]
      - [ 190., 188. ]
      - [ 138., 161. ]
      - [ 142., 162. ]
      - [ 133., 159. ]
      - [ 134., 160. ]
      - [ 138., 161. ]
      - [ 142., 161. ]
      - [ 125., 160. ]
      - [ 127., 161. ]
      - [ 131., 162. ]
      - [ 135., 161. ]
      - [ 140., 162. ]
      - [ 117., 164. ]
      - [ 119., 163. ]
      - [ 122., 164. ]
      - [ 128., 165. ]
      - [ 135., 165. ]
      - [ 141., 165. ]
      - [ 114., 166. ]
      - [ 115., 165. ]
      - [ 119., 164. ]
      - [ 122., 165. ]
      - [ 128., 165. ]
      - [ 135., 166. ]
      - [ 143., 165. ]
      - [ 117., 164. ]
      - [ 118., 164. ]
      - [ 119., 164. ]
      - [ 121., 164. ]
      - [ 125., 163. ]
      - [ 129., 164. ]
      - [ 134., 163. ]
      - [ 140., 164. ]
      - [ 145., 164. ]
      - [ 119., 163. ]
      - [ 119., 163. ]
      - [ 120., 163. ]
      - [ 120., 163. ]
      - [ 122., 163. ]
      - [ 123., 162. ]
      - [ 126., 162. ]
      - [ 128., 163. ]
      - [ 134., 163. ]
      - [ 138., 163. ]
      - [ 143., 162. ]
      - [ 122., 162. ]
      - [ 122., 162. ]
      - [ 120., 162. ]
      - [ 120., 162. ]
      - [ 117., 162. ]
      - [ 118., 161. ]
      - [ 118., 161. ]
      - [ 120., 161. ]
      - [ 123., 161. ]
      - [ 127., 161. ]
      - [ 132., 162. ]
      - [ 139., 164. ]
      - [ 145., 164. ]
      - [ 123., 160. ]
      - [ 122., 161. ]
      - [ 120., 160. ]
      - [ 118., 161. ]
      - [ 116., 161. ]
      - [ 114., 161. ]
      - [ 114., 161. ]
      - [ 115., 161. ]
      - [ 117., 161. ]
      - [ 121., 161. ]
      - [ 126., 161. ]
      - [ 132., 162. ]
      - [ 138., 163. ]
      - [ 144., 164. ]
      - [ 123., 158. ]
      - [ 121., 160. ]
      - [ 120., 159. ]
      - [ 117., 160. ]
      - [ 116., 160. ]
      - [ 113., 161. ]
      - [ 112., 162. ]
      - [ 113., 162. ]
      - [ 115., 162. ]
      - [ 118., 161. ]
      - [ 121., 161. ]
      - [ 125., 161. ]
      - [ 131., 163. ]
      - [ 136., 165. ]
      - [ 142., 165. ]
      - [ 122., 157. ]
      - [ 121., 158. ]
      - [ 119., 159. ]
      - [ 118., 159. ]
      - [ 116., 159. ]
      - [ 114., 160. ]
      - [ 113., 161. ]
      - [ 113., 162. ]
      - [ 115., 162. ]
      - [ 117., 161. ]
      - [ 120., 162. ]
      - [ 123., 162. ]
      - [ 126., 163. ]
      - [ 129., 164. ]
      - [ 134., 164. ]
      - [ 140., 164. ]
      - [ 119., 157. ]
      - [ 119., 158. ]
      - [ 119., 158. ]
      - [ 118., 159. ]
      - [ 117., 159. ]
      - [ 116., 160. ]
      - [ 116., 160. ]
      - [ 117., 160. ]
      - [ 117., 161. ]
      - [ 119., 161. ]
      - [ 120., 161. ]
      - [ 121., 162. ]
      - [ 123., 162. ]
      - [ 125., 163. ]
      - [ 126., 164. ]
      - [ 129., 163. ]
      - [ 136., 163. ]
      - [ 142., 163. ]
      - [ 118., 157. ]
      - [ 118., 157. ]
      - [ 118., 158. ]
      - [ 118., 158. ]
      - [ 119., 159. ]
      - [ 119., 159. ]
      - [ 119., 160. ]
      - [ 119., 160. ]
      - [ 120., 161. ]
      - [ 120., 161. ]
      - [ 120., 161. ]
      - [ 120., 163. ]
      - [ 121., 163. ]
      - [ 121., 163. ]
      - [ 122., 164. ]
      - [ 124., 163. ]
      - [ 128., 160. ]
      - [ 132., 161. ]
      - [ 136., 162. ]
      - [ 137., 163. ]
      - [ 141., 163. ]
      - [ 117., 157. ]
      - [ 117., 157. ]
      - [ 117., 158. ]
      - [ 120., 157. ]
      - [ 120., 159. ]
      - [ 121., 158. ]
      - [ 121., 160. ]
      - [ 122., 160. ]
      - [ 123., 161. ]
      - [ 122., 161. ]
      - [ 122., 161. ]
      - [ 120., 162. ]
      - [ 119., 163. ]
      - [ 119., 163. ]
      - [ 118., 164. ]
      - [ 120., 162. ]
      - [ 123., 161. ]
      - [ 125., 160. ]
      - [ 129., 162. ]
      - [ 132., 163. ]
      - [ 135., 163. ]
      - [ 143., 161. ]
      - [ 116., 157. ]
      - [ 117., 157. ]
      - [ 117., 158. ]
      - [ 120., 157. ]
      - [ 120., 159. ]
      - [ 121., 159. ]
      - [ 122., 160. ]
      - [ 123., 160. ]
      - [ 123., 161. ]
      - [ 123., 161. ]
      - [ 122., 161. ]
      - [ 120., 162. ]
      - [ 119., 163. ]
      - [ 117., 163. ]
      - [ 117., 164. ]
      - [ 117., 163. ]
      - [ 121., 162. ]
      - [ 123., 160. ]
      - [ 126., 162. ]
      - [ 128., 162. ]
      - [ 133., 162. ]
      - [ 138., 163. ]
      - [ 143., 162. ]
      - [ 180., 195. ]
      - [ 176., 196. ]
      - [ 175., 195. ]
      - [ 182., 193. ]
      - [ 182., 193. ]
      - [ 182., 193. ]
      - [ 182., 193. ]
      - [ 182., 192. ]
      - [ 181., 194. ]
      - [ 182., 193. ]
      - [ 182., 193. ]
      - [ 181., 194. ]
      - [ 181., 194. ]
      - [ 178., 183. ]
      - [ 182., 193. ]
      - [ 182., 192. ]
      - [ 182., 192. ]
      - [ 178., 184. ]
      - [ 178., 183. ]
      - [ 178., 182. ]
      - [ 178., 183. ]
      - [ 177., 182. ]
      - [ 177., 182. ]
      - [ 179., 195. ]
      - [ 177., 182. ]
      - [ 178., 190. ]
      - [ 177., 181. ]
      - [ 177., 181. ]
      - [ 175., 180. ]
      - [ 165., 202. ]
      - [ 167., 201. ]
      - [ 168., 201. ]
      - [ 171., 200. ]
      - [ 170., 200. ]
      - [ 171., 199. ]
      - [ 145., 142. ]
      - [ 171., 200. ]
      - [ 171., 200. ]
      - [ 171., 200. ]
      - [ 171., 200. ]
      - [ 146., 139. ]
      - [ 137., 123. ]
      - [ 137., 122. ]
      - [ 136., 121. ]
      - [ 136., 121. ]
      - [ 135., 121. ]
      - [ 135., 122. ]
      - [ 133., 122. ]
      - [ 138., 123. ]
      - [ 138., 121. ]
      - [ 138., 121. ]
      - [ 136., 121. ]
      - [ 135., 121. ]
      - [ 135., 122. ]
      - [ 137., 123. ]
      - [ 137., 123. ]
      - [ 135., 122. ]
      - [ 116., 202. ]
      - [ 115., 201. ]
      - [ 115., 201. ]
      - [ 115., 201. ]
      - [ 115., 201. ]
      - [ 116., 202. ]
      - [ 114., 196. ]
      - [ 115., 201. ]
      - [ 115., 201. ]
      - [ 115., 201. ]
      - [ 115., 201. ]
      - [ 115., 201. ]
      - [ 115., 201. ]
      - [ 115., 201. ]
      - [ 115., 202. ]
      - [ 115., 201. ]
      - [ 115., 201. ]
      - [ 115., 201. ]
      - [ 115., 202. ]
      - [ 115., 202. ]
      - [ 115., 201. ]
      - [ 115., 201. ]
      - [ 115., 201. ]
      - [ 115., 202. ]
      - [ 115., 202. ]
      - [ 115., 202. ]
      - [ 115., 201. ]
      - [ 115., 201. ]
      - [ 115., 202. ]
      - [ 115., 201. ]
      - [ 115., 202. ]
      - [ 115., 201. ]
      - [ 115., 201. ]
      - [ 115., 201. ]
      - [ 115., 201. ]
      - [ 115., 201. ]
      - [ 115., 201. ]
      - [ 115., 201. ]
      - [ 116., 203. ]
      - [ 116., 203. ]
      - [ 116., 202. ]
      - [ 116., 202. ]
      - [ 116., 202. ]
      - [ 116., 203. ]
      - [ 116., 203. ]
      - [ 116., 203. ]
      - [ 116., 203. ]
      - [ 116., 203. ]
      - [ 116., 203. ]
      - [ 116., 203. ]
      - [ 116., 202. ]
      - [ 116., 202. ]
      - [ 116., 202. ]
      - [ 116., 202. ]
      - [ 116., 202. ]
      - [ 116., 202. ]
      - [ 117., 204. ]
      - [ 116., 203. ]
      - [ 116., 203. ]
      - [ 116., 203. ]
      - [ 116., 203. ]
      - [ 116., 203. ]
      - [ 115., 201. ]
      - [ 115., 201. ]
      - [ 115., 201. ]
      - [ 116., 203. ]
      - [ 116., 203. ]
      - [ 116., 203. ]
      - [ 115., 188. ]
      - [ 116., 203. ]
      - [ 116., 203. ]
      - [ 116., 203. ]
      - [ 116., 203. ]
      - [ 116., 203. ]
      - [ 115., 203. ]
      - [ 116., 203. ]
      - [ 116., 203. ]
      - [ 116., 203. ]
      - [ 115., 203. ]
      - [ 116., 203. ]
      - [ 116., 203. ]
      - [ 116., 203. ]
      - [ 116., 203. ]
      - [ 116., 203. ]
      - [ 116., 203. ]
      - [ 116., 204. ]
      - [ 117., 204. ]
      - [ 116., 204. ]
      - [ 117., 204. ]
      - [ 117., 204. ]
      - [ 116., 202. ]
      - [ 116., 202. ]
      - [ 116., 202. ]
      - [ 116., 202. ]
      - [ 115., 201. ]
      - [ 115., 201. ]
      - [ 117., 204. ]
      - [ 116., 202. ]
      - [ 116., 203. ]
      - [ 116., 202. ]
      - [ 116., 202. ]
      - [ 116., 203. ]
      - [ 116., 202. ]
      - [ 116., 202. ]
      - [ 116., 202. ]
      - [ 116., 202. ]
      - [ 116., 202. ]
      - [ 116., 202. ]
      - [ 116., 202. ]
      - [ 116., 202. ]
      - [ 116., 202. ]
      - [ 116., 202. ]
      - [ 116., 202. ]
      - [ 116., 202. ]
      - [ 116., 202. ]
      - [ 116., 202. ]
      - [ 116., 202. ]
      - [ 117., 204. ]
      - [ 117., 204. ]
      - [ 117., 204. ]
      - [ 117., 204. ]
      - [ 114., 201. ]
      - [ 115., 201. ]
      - [ 115., 201. ]
      - [ 115., 201. ]
      - [ 115., 201. ]
      - [ 126., 184. ]
      - [ 125., 167. ]
      - [ 137., 123. ]
      - [ 135., 122. ]
      - [ 135., 122. ]
      - [ 136., 122. ]
      - [ 135., 122. ]
      - [ 136., 122. ]
      - [ 135., 121. ]
      - [ 135., 121. ]
      - [ 135., 121. ]
      - [ 135., 121. ]
      - [ 136., 122. ]
      - [ 136., 121. ]
      - [ 135., 121. ]
      - [ 135., 121. ]
      - [ 135., 121. ]
      - [ 135., 122. ]
      - [ 135., 122. ]
      - [ 135., 122. ]
      - [ 135., 122. ]
      - [ 135., 122. ]
      - [ 135., 122. ]
      - [ 135., 122. ]
      - [ 134., 122. ]
      - [ 130., 123. ]
      - [ 131., 122. ]
      - [ 133., 122. ]
      - [ 133., 122. ]
      - [ 135., 122. ]
      - [ 135., 122. ]
      - [ 135., 122. ]
      - [ 135., 122. ]
      - [ 135., 122. ]
      - [ 135., 122. ]
      - [ 135., 122. ]
      - [ 134., 122. ]
      - [ 129., 125. ]
      - [ 129., 124. ]
      - [ 131., 122. ]
      - [ 133., 122. ]
      - [ 133., 122. ]
      - [ 128., 128. ]
      - [ 129., 127. ]
      - [ 129., 124. ]
      - [ 128., 128. ]
      - [ 129., 125. ]
      - [ 129., 125. ]
      - [ 133., 122. ]
      - [ 133., 122. ]
      - [ 137., 123. ]
      - [ 137., 123. ]
      - [ 137., 123. ]
      - [ 137., 123. ]
      - [ 128., 124. ]
      - [ 128., 124. ]
      - [ 128., 125. ]
      - [ 129., 124. ]
      - [ 133., 122. ]
      - [ 133., 122. ]
      - [ 135., 122. ]
      - [ 128., 124. ]
      - [ 128., 125. ]
      - [ 128., 125. ]
      - [ 128., 128. ]
      - [ 129., 127. ]
      - [ 133., 122. ]
      - [ 133., 122. ]
      - [ 135., 122. ]
      - [ 135., 121. ]
      - [ 135., 122. ]
      - [ 129., 124. ]
      - [ 128., 124. ]
      - [ 127., 126. ]
      - [ 127., 128. ]
      - [ 127., 127. ]
      - [ 128., 127. ]
      - [ 128., 128. ]
      - [ 128., 128. ]
      - [ 133., 122. ]
      - [ 135., 122. ]
      - [ 135., 121. ]
      - [ 136., 121. ]
      - [ 137., 122. ]
      - [ 137., 123. ]
      - [ 138., 124. ]
      - [ 138., 124. ]
      - [ 138., 124. ]
      - [ 138., 124. ]
      - [ 129., 124. ]
      - [ 129., 124. ]
      - [ 128., 124. ]
      - [ 127., 126. ]
      - [ 127., 128. ]
      - [ 127., 127. ]
      - [ 129., 126. ]
      - [ 133., 122. ]
      - [ 135., 122. ]
      - [ 135., 121. ]
      - [ 136., 121. ]
      - [ 137., 122. ]
      - [ 137., 123. ]
      - [ 139., 125. ]
      - [ 139., 125. ]
      - [ 139., 124. ]
      - [ 138., 124. ]
      - [ 139., 124. ]
      - [ 134., 122. ]
      - [ 129., 124. ]
      - [ 128., 124. ]
      - [ 128., 125. ]
      - [ 127., 128. ]
      - [ 128., 127. ]
      - [ 129., 124. ]
      - [ 129., 125. ]
      - [ 133., 123. ]
      - [ 134., 122. ]
      - [ 135., 122. ]
      - [ 137., 122. ]
      - [ 138., 123. ]
      - [ 142., 134. ]
      - [ 140., 128. ]
      - [ 139., 125. ]
      - [ 139., 125. ]
      - [ 139., 125. ]
      - [ 129., 127. ]
      - [ 128., 127. ]
      - [ 132., 122. ]
      - [ 133., 122. ]
      - [ 133., 122. ]
      - [ 132., 122. ]
      - [ 133., 122. ]
      - [ 135., 122. ]
      - [ 135., 122. ]
      - [ 132., 121. ]
      - [ 132., 121. ]
      - [ 133., 121. ]
      - [ 133., 121. ]
      - [ 134., 121. ]
      - [ 134., 121. ]
      - [ 135., 121. ]
      - [ 137., 122. ]
      - [ 133., 121. ]
      - [ 133., 121. ]
      - [ 134., 120. ]
      - [ 134., 120. ]
      - [ 134., 121. ]
      - [ 134., 121. ]
      - [ 135., 121. ]
      - [ 137., 122. ]
      - [ 134., 122. ]
      - [ 133., 121. ]
      - [ 133., 121. ]
      - [ 134., 120. ]
      - [ 133., 121. ]
      - [ 134., 121. ]
      - [ 135., 122. ]
      - [ 135., 121. ]
      - [ 135., 122. ]
      - [ 137., 123. ]
      - [ 135., 122. ]
      - [ 134., 122. ]
      - [ 135., 122. ]
      - [ 133., 122. ]
      - [ 133., 122. ]
      - [ 133., 122. ]
      - [ 133., 122. ]
      - [ 133., 122. ]
      - [ 133., 121. ]
      - [ 133., 122. ]
      - [ 133., 121. ]
      - [ 133., 121. ]
      - [ 134., 121. ]
      - [ 134., 121. ]
      - [ 134., 121. ]
      - [ 134., 121. ]
      - [ 135., 122. ]
      - [ 135., 121. ]
      - [ 135., 122. ]
      - [ 135., 122. ]
      - [ 133., 122. ]
      - [ 133., 122. ]
      - [ 133., 122. ]
      - [ 134., 121. ]
      - [ 133., 121. ]
      - [ 134., 121. ]
      - [ 134., 121. ]
      - [ 134., 121. ]
      - [ 134., 121. ]
      - [ 135., 121. ]
      - [ 135., 122. ]
      - [ 135., 122. ]
      - [ 135., 122. ]
      - [ 135., 123. ]
      - [ 135., 121. ]
      - [ 135., 122. ]
      - [ 135., 121. ]
      - [ 134., 121. ]
      - [ 135., 121. ]
      - [ 134., 121. ]
      - [ 135., 122. ]
      - [ 135., 122. ]
      - [ 135., 122. ]
      - [ 135., 122. ]
      - [ 135., 121. ]
      - [ 135., 123. ]
      - [ 137., 122. ]
      - [ 135., 122. ]
      - [ 135., 122. ]
      - [ 135., 121. ]
      - [ 135., 121. ]
      - [ 135., 121. ]
      - [ 136., 121. ]
      - [ 135., 121. ]
      - [ 135., 121. ]
      - [ 135., 122. ]
      - [ 135., 122. ]
      - [ 138., 123. ]
      - [ 137., 123. ]
      - [ 137., 122. ]
      - [ 137., 122. ]
      - [ 137., 122. ]
      - [ 135., 122. ]
      - [ 136., 121. ]
      - [ 135., 122. ]
      - [ 135., 122. ]
      - [ 138., 123. ]
      - [ 137., 123. ]
      - [ 137., 123. ]
      - [ 137., 123. ]
      - [ 137., 122. ]
      - [ 137., 123. ]
      - [ 139., 125. ]
      - [ 138., 124. ]
      - [ 138., 124. ]
      - [ 138., 123. ]
      - [ 139., 125. ]
      - [ 139., 125. ]
      - [ 139., 125. ]
      - [ 139., 125. ]
      - [ 140., 126. ]
      - [ 128., 141. ]
      - [ 130., 134. ]
      - [ 129., 153. ]
      - [ 129., 131. ]
      - [ 127., 149. ]
      - [ 128., 141. ]
      - [ 128., 137. ]
      - [ 127., 143. ]
      - [ 126., 158. ]
      - [ 125., 210. ]
      - [ 125., 210. ]
      - [ 125., 210. ]
      - [ 128., 164. ]
      - [ 127., 167. ]
      - [ 126., 163. ]
      - [ 126., 160. ]
      - [ 135., 148. ]
      - [ 135., 148. ]
      - [ 135., 148. ]
      - [ 135., 148. ]
      - [ 135., 149. ]
      - [ 135., 149. ]
      - [ 135., 148. ]
      - [ 135., 148. ]
      - [ 135., 148. ]
      - [ 135., 148. ]
      - [ 135., 148. ]
      - [ 135., 148. ]
      - [ 135., 148. ]
      - [ 135., 148. ]
      - [ 135., 148. ]
      - [ 135., 148. ]
      - [ 135., 148. ]
      - [ 135., 149. ]
      - [ 135., 149. ]
      - [ 135., 149. ]
      - [ 135., 148. ]
      - [ 135., 148. ]
      - [ 135., 148. ]
      - [ 135., 148. ]
      - [ 135., 148. ]
      - [ 135., 148. ]
      - [ 135., 148. ]
      - [ 135., 148. ]
      - [ 135., 148. ]
      - [ 135., 148. ]
      - [ 135., 148. ]
      - [ 135., 148. ]
      - [ 135., 149. ]
      - [ 135., 149. ]
      - [ 135., 149. ]
      - [ 135., 148. ]
      - [ 135., 148. ]
      - [ 135., 148. ]
      - [ 135., 148. ]
      - [ 135., 148. ]
      - [ 135., 148. ]
      - [ 135., 148. ]
      - [ 135., 149. ]
      - [ 135., 148. ]
      - [ 135., 148. ]
      - [ 135., 148. ]
      - [ 135., 148. ]
      - [ 135., 148. ]
      - [ 135., 149. ]
      - [ 135., 149. ]
      - [ 135., 149. ]
      - [ 135., 148. ]
      - [ 135., 148. ]
      - [ 135., 148. ]
      - [ 135., 148. ]
      - [ 135., 148. ]
      - [ 135., 148. ]
      - [ 135., 148. ]
      - [ 135., 148. ]
      - [ 135., 148. ]
      - [ 135., 148. ]
      - [ 135., 148. ]
      - [ 135., 148. ]
      - [ 135., 148. ]
      - [ 135., 148. ]
      - [ 135., 148. ]
      - [ 135., 148. ]
      - [ 135., 148. ]
      - [ 135., 148. ]
      - [ 135., 148. ]
      - [ 135., 148. ]
      - [ 135., 148. ]
      - [ 135., 148. ]
      - [ 135., 148. ]
      - [ 135., 148. ]
      - [ 135., 148. ]
      - [ 135., 148. ]
      - [ 135., 148. ]
      - [ 135., 148. ]
      - [ 135., 148. ]
      - [ 135., 148. ]
      - [ 135., 148. ]
      - [ 135., 148. ]
      - [ 135., 148. ]
      - [ 135., 148. ]
      - [ 135., 148. ]
      - [ 135., 148. ]
      - [ 135., 149. ]
      - [ 135., 149. ]
      - [ 135., 148. ]
      - [ 135., 148. ]
      - [ 135., 148. ]
      - [ 135., 148. ]
      - [ 135., 149. ]
      - [ 135., 148. ]
      - [ 135., 148. ]
      - [ 135., 148. ]
      - [ 135., 148. ]
      - [ 135., 148. ]
      - [ 135., 148. ]
      - [ 135., 148. ]
      - [ 135., 148. ]
      - [ 135., 148. ]
      - [ 135., 149. ]
      - [ 135., 148. ]
      - [ 135., 149. ]
      - [ 135., 148. ]
      - [ 135., 148. ]
      - [ 135., 148. ]
      - [ 135., 148. ]
      - [ 135., 148. ]
      - [ 135., 148. ]
      - [ 135., 148. ]
      - [ 135., 148. ]
      - [ 135., 148. ]
      - [ 135., 148. ]
      - [ 135., 148. ]
      - [ 135., 148. ]
      - [ 135., 148. ]
      - [ 135., 148. ]
      - [ 135., 148. ]
      - [ 135., 148. ]
      - [ 135., 148. ]
      - [ 135., 148. ]
      - [ 135., 148. ]
      - [ 135., 148. ]
      - [ 135., 148. ]
      - [ 135., 148. ]
      - [ 135., 148. ]
      - [ 135., 148. ]
      - [ 135., 148. ]
      - [ 135., 148. ]
      - [ 135., 148. ]
      - [ 135., 148. ]
      - [ 135., 148. ]
      - [ 135., 148. ]
      - [ 135., 148. ]
      - [ 135., 148. ]
      - [ 135., 148. ]
      - [ 135., 148. ]
      - [ 135., 148. ]
      - [ 135., 148. ]
      - [ 135., 148. ]
      - [ 135., 148. ]
      - [ 135., 148. ]
      - [ 135., 148. ]
      - [ 135., 148. ]
      - [ 135., 148. ]
      - [ 135., 148. ]
      - [ 135., 148. ]
      - [ 135., 148. ]
      - [ 135., 149. ]
      - [ 135., 149. ]
      - [ 135., 149. ]
      - [ 135., 148. ]
      - [ 135., 148. ]
      - [ 135., 149. ]
      - [ 135., 148. ]
      - [ 135., 148. ]
      - [ 135., 148. ]
      - [ 135., 149. ]
      - [ 135., 148. ]
      - [ 135., 148. ]
      - [ 135., 148. ]
      - [ 135., 148. ]
      - [ 135., 148. ]
      - [ 135., 149. ]
      - [ 135., 148. ]
      - [ 135., 148. ]
      - [ 135., 149. ]
      - [ 135., 148. ]
      - [ 135., 148. ]
      - [ 135., 148. ]
      - [ 135., 148. ]
      - [ 135., 149. ]
      - [ 135., 148. ]
      - [ 135., 149. ]
      - [ 135., 148. ]
      - [ 135., 148. ]
      - [ 135., 148. ]
      - [ 135., 148. ]
      - [ 135., 148. ]
      - [ 135., 148. ]
      - [ 135., 149. ]
      - [ 135., 148. ]
      - [ 135., 148. ]
      - [ 135., 148. ]
      - [ 135., 148. ]
      - [ 135., 148. ]
      - [ 135., 148. ]
      - [ 135., 148. ]
      - [ 135., 149. ]
      - [ 135., 149. ]
      - [ 135., 148. ]
      - [ 135., 149. ]
      - [ 135., 149. ]
      - [ 135., 149. ]
      - [ 135., 149. ]
      - [ 135., 149. ]
      - [ 135., 149. ]
      - [ 135., 149. ]
      - [ 135., 149. ]
      - [ 135., 148. ]
      - [ 135., 148. ]
      - [ 135., 148. ]
      - [ 135., 148. ]
      - [ 135., 148. ]
      - [ 135., 149. ]
      - [ 135., 148. ]
      - [ 135., 148. ]
      - [ 135., 149. ]
      - [ 135., 149. ]
      - [ 135., 149. ]
      - [ 135., 149. ]
      - [ 135., 149. ]
      - [ 135., 149. ]
      - [ 135., 148. ]
      - [ 135., 149. ]
      - [ 135., 148. ]
      - [ 135., 148. ]
      - [ 135., 148. ]
      - [ 135., 148. ]
      - [ 135., 148. ]
      - [ 128., 147. ]
      - [ 135., 149. ]
      - [ 135., 148. ]
      - [ 135., 148. ]
      - [ 135., 149. ]
      - [ 135., 148. ]
      - [ 135., 149. ]
      - [ 135., 148. ]
      - [ 135., 149. ]
      - [ 135., 148. ]
      - [ 135., 148. ]
      - [ 135., 149. ]
      - [ 135., 148. ]
      - [ 135., 148. ]
      - [ 135., 148. ]
      - [ 135., 148. ]
      - [ 135., 148. ]
      - [ 135., 150. ]
      - [ 135., 150. ]
      - [ 135., 150. ]
      - [ 135., 150. ]
      - [ 135., 150. ]
      - [ 135., 150. ]
      - [ 135., 150. ]
      - [ 135., 150. ]
      - [ 134., 150. ]
      - [ 130., 150. ]
      - [ 135., 150. ]
      - [ 134., 151. ]
      - [ 134., 151. ]
      - [ 134., 151. ]
      - [ 134., 151. ]
      - [ 133., 151. ]
      - [ 133., 152. ]
      - [ 133., 152. ]
      - [ 133., 152. ]
      - [ 133., 152. ]
      - [ 133., 152. ]
      - [ 133., 152. ]
      - [ 133., 152. ]
      - [ 133., 152. ]
      - [ 133., 152. ]
      - [ 133., 152. ]
      - [ 133., 152. ]
      - [ 133., 152. ]
      - [ 131., 152. ]
      - [ 131., 152. ]
      - [ 131., 153. ]
      - [ 131., 153. ]
      - [ 131., 153. ]
      - [ 131., 153. ]
      - [ 131., 153. ]
      - [ 131., 153. ]
      - [ 131., 153. ]
      - [ 131., 153. ]
      - [ 130., 153. ]
      - [ 130., 153. ]
      - [ 130., 153. ]
      - [ 130., 153. ]
      - [ 130., 153. ]
      - [ 131., 153. ]
      - [ 131., 153. ]
      - [ 131., 153. ]
      - [ 129., 153. ]
      - [ 129., 153. ]
      - [ 128., 153. ]
      - [ 128., 153. ]
      - [ 128., 153. ]
      - [ 128., 153. ]
      - [ 127., 153. ]
      - [ 127., 165. ]
      - [ 129., 165. ]
      - [ 129., 165. ]
      - [ 129., 165. ]
      - [ 129., 165. ]
      - [ 129., 165. ]
      - [ 129., 165. ]
      - [ 128., 165. ]
      - [ 129., 165. ]
      - [ 129., 165. ]
      - [ 129., 165. ]
      - [ 129., 165. ]
      - [ 129., 165. ]
      - [ 129., 165. ]
      - [ 129., 165. ]
      - [ 129., 165. ]
      - [ 129., 165. ]
      - [ 129., 165. ]
      - [ 129., 165. ]
      - [ 129., 165. ]
      - [ 129., 165. ]
      - [ 129., 165. ]
      - [ 129., 165. ]
      - [ 129., 165. ]
      - [ 129., 165. ]
      - [ 129., 165. ]
      - [ 129., 165. ]
      - [ 129., 165. ]
      - [ 129., 165. ]
      - [ 130., 164. ]
      - [ 130., 164. ]
      - [ 129., 165. ]
      - [ 129., 165. ]
      - [ 129., 165. ]
      - [ 129., 165. ]
      - [ 129., 165. ]
      - [ 129., 165. ]
      - [ 129., 165. ]
      - [ 129., 165. ]
      - [ 129., 165. ]
      - [ 129., 165. ]
      - [ 129., 165. ]
      - [ 129., 165. ]
      - [ 129., 165. ]
      - [ 129., 165. ]
      - [ 129., 165. ]
      - [ 129., 165. ]
      - [ 129., 165. ]
      - [ 129., 165. ]
      - [ 129., 165. ]
      - [ 128., 165. ]
      - [ 128., 165. ]
      - [ 129., 165. ]
      - [ 129., 165. ]
      - [ 129., 165. ]
      - [ 130., 164. ]
      - [ 130., 164. ]
      - [ 130., 164. ]
      - [ 130., 164. ]
      - [ 130., 164. ]
      - [ 130., 164. ]
      - [ 130., 164. ]
      - [ 130., 164. ]
      - [ 130., 164. ]
      - [ 130., 164. ]
      - [ 130., 164. ]
      - [ 130., 164. ]
      - [ 130., 164. ]
      - [ 130., 164. ]
      - [ 130., 164. ]
      - [ 130., 164. ]
      - [ 130., 164. ]
      - [ 130., 164. ]
      - [ 130., 164. ]
      - [ 130., 164. ]
      - [ 130., 164. ]
      - [ 130., 164. ]
      - [ 130., 164. ]
      - [ 130., 164. ]
      - [ 130., 164. ]
      - [ 130., 164. ]
      - [ 130., 164. ]
      - [ 130., 164. ]
      - [ 130., 164. ]
      - [ 130., 164. ]
      - [ 130., 164. ]
      - [ 130., 164. ]
      - [ 130., 164. ]
      - [ 128., 165. ]
      - [ 130., 164. ]
      - [ 130., 164. ]
      - [ 130., 164. ]
      - [ 130., 164. ]
      - [ 130., 164. ]
      - [ 130., 164. ]
      - [ 130., 164. ]
      - [ 130., 164. ]
      - [ 130., 164. ]
      - [ 130., 164. ]
      - [ 130., 164. ]
      - [ 130., 164. ]
      - [ 130., 164. ]
      - [ 130., 164. ]
      - [ 128., 165. ]
      - [ 128., 165. ]
      - [ 128., 165. ]
      - [ 128., 165. ]
      - [ 106., 138. ]
      - [ 77., 186. ]
      - [ 77., 186. ]
      - [ 77., 186. ]
      - [ 77., 186. ]
      - [ 77., 186. ]
      - [ 77., 187. ]
      - [ 77., 186. ]
      - [ 77., 187. ]
      - [ 77., 186. ]
      - [ 82., 191. ]
      - [ 82., 191. ]
      - [ 77., 187. ]
      - [ 78., 189. ]
      - [ 78., 189. ]
      - [ 78., 189. ]
      - [ 77., 189. ]
      - [ 77., 189. ]
      - [ 77., 189. ]
      - [ 77., 189. ]
      - [ 78., 189. ]
      - [ 78., 189. ]
      - [ 78., 189. ]
      - [ 78., 189. ]
      - [ 77., 189. ]
      - [ 78., 189. ]
      - [ 78., 189. ]
      - [ 78., 188. ]
      - [ 78., 189. ]
      - [ 78., 189. ]
      - [ 77., 188. ]
      - [ 77., 188. ]
      - [ 77., 188. ]
      - [ 78., 189. ]
      - [ 78., 189. ]
      - [ 77., 188. ]
      - [ 77., 188. ]
      - [ 77., 188. ]
      - [ 77., 188. ]
      - [ 77., 188. ]
      - [ 77., 188. ]
      - [ 77., 187. ]
      - [ 77., 187. ]
      - [ 77., 187. ]
      - [ 77., 189. ]
      - [ 78., 189. ]
      - [ 77., 188. ]
      - [ 77., 188. ]
      - [ 77., 188. ]
      - [ 76., 188. ]
      - [ 77., 188. ]
      - [ 77., 188. ]
      - [ 77., 187. ]
      - [ 77., 187. ]
      - [ 77., 187. ]
      - [ 77., 187. ]
      - [ 77., 187. ]
      - [ 77., 187. ]
      - [ 77., 186. ]
      - [ 78., 188. ]
      - [ 77., 188. ]
      - [ 78., 188. ]
      - [ 78., 188. ]
      - [ 77., 188. ]
      - [ 77., 188. ]
      - [ 77., 188. ]
      - [ 77., 187. ]
      - [ 77., 187. ]
      - [ 77., 187. ]
      - [ 77., 188. ]
      - [ 77., 188. ]
      - [ 77., 187. ]
      - [ 77., 187. ]
      - [ 77., 187. ]
      - [ 78., 188. ]
      - [ 78., 188. ]
      - [ 78., 188. ]
      - [ 78., 188. ]
      - [ 78., 188. ]
      - [ 77., 188. ]
      - [ 77., 188. ]
      - [ 77., 188. ]
      - [ 77., 187. ]
      - [ 77., 187. ]
      - [ 77., 187. ]
      - [ 77., 188. ]
      - [ 77., 187. ]
      - [ 77., 187. ]
      - [ 77., 187. ]
      - [ 77., 187. ]
      - [ 77., 186. ]
      - [ 77., 186. ]
      - [ 78., 189. ]
      - [ 78., 189. ]
      - [ 78., 189. ]
      - [ 78., 189. ]
      - [ 78., 189. ]
      - [ 78., 189. ]
      - [ 78., 189. ]
      - [ 78., 189. ]
      - [ 78., 189. ]
      - [ 77., 189. ]
      - [ 77., 189. ]
      - [ 77., 189. ]
      - [ 77., 189. ]
      - [ 77., 189. ]
      - [ 77., 189. ]
      - [ 77., 189. ]
      - [ 77., 190. ]
      - [ 78., 189. ]
      - [ 78., 189. ]
      - [ 77., 190. ]
      - [ 77., 190. ]
      - [ 77., 188. ]
      - [ 77., 188. ]
      - [ 77., 188. ]
      - [ 77., 188. ]
      - [ 78., 189. ]
      - [ 78., 189. ]
      - [ 78., 189. ]
      - [ 78., 189. ]
      - [ 77., 189. ]
      - [ 77., 189. ]
      - [ 77., 189. ]
      - [ 77., 188. ]
      - [ 77., 188. ]
      - [ 78., 189. ]
      - [ 78., 189. ]
      - [ 77., 188. ]
      - [ 77., 189. ]
      - [ 77., 189. ]
      - [ 78., 189. ]
      - [ 78., 189. ]
      - [ 78., 189. ]
      - [ 95., 148. ]
      - [ 94., 149. ]
      - [ 77., 188. ]
      - [ 77., 188. ]
      - [ 77., 188. ]
      - [ 77., 188. ]
      - [ 77., 188. ]
      - [ 77., 188. ]
      - [ 78., 188. ]
      - [ 78., 188. ]
      - [ 77., 186. ]
      - [ 77., 186. ]
      - [ 77., 186. ]
      - [ 77., 186. ]
      - [ 77., 186. ]
      - [ 77., 186. ]
      - [ 77., 186. ]
      - [ 77., 186. ]
      - [ 77., 186. ]
      - [ 77., 186. ]
      - [ 77., 187. ]
      - [ 77., 187. ]
      - [ 124., 138. ]
      - [ 124., 138. ]
      - [ 124., 138. ]
      - [ 124., 138. ]
      - [ 124., 138. ]
      - [ 121., 144. ]
      - [ 123., 138. ]
      - [ 123., 138. ]
      - [ 123., 138. ]
      - [ 123., 138. ]
      - [ 123., 138. ]
      - [ 122., 139. ]
      - [ 123., 138. ]
      - [ 123., 138. ]
      - [ 123., 138. ]
      - [ 123., 138. ]
      - [ 122., 139. ]
      - [ 123., 138. ]
      - [ 123., 138. ]
      - [ 123., 138. ]
      - [ 123., 138. ]
      - [ 123., 138. ]
      - [ 123., 138. ]
      - [ 123., 138. ]
      - [ 123., 138. ]
      - [ 123., 138. ]
      - [ 123., 138. ]
      - [ 123., 138. ]
      - [ 123., 138. ]
      - [ 123., 138. ]
      - [ 123., 138. ]
      - [ 123., 138. ]
      - [ 123., 138. ]
      - [ 123., 138. ]
      - [ 120., 142. ]
      - [ 121., 141. ]
      - [ 121., 141. ]
      - [ 122., 140. ]
      - [ 122., 140. ]
      - [ 122., 140. ]
      - [ 123., 139. ]
      - [ 120., 143. ]
      - [ 121., 140. ]
      - [ 116., 179. ]
      - [ 117., 179. ]
      - [ 117., 179. ]
      - [ 117., 179. ]
      - [ 117., 178. ]
      - [ 119., 175. ]
      - [ 119., 176. ]
      - [ 119., 175. ]
      - [ 119., 175. ]
      - [ 120., 174. ]
      - [ 120., 174. ]
      - [ 120., 174. ]
      - [ 120., 174. ]
      - [ 120., 174. ]
      - [ 120., 174. ]
      - [ 120., 174. ]
      - [ 120., 174. ]
      - [ 120., 174. ]
      - [ 120., 174. ]
      - [ 120., 174. ]
      - [ 120., 174. ]
      - [ 120., 174. ]
      - [ 120., 174. ]
      - [ 120., 174. ]
      - [ 120., 174. ]
      - [ 120., 174. ]
      - [ 120., 174. ]
      - [ 120., 174. ]
      - [ 120., 174. ]
      - [ 120., 174. ]
      - [ 120., 174. ]
      - [ 120., 174. ]
      - [ 120., 174. ]
      - [ 120., 174. ]
      - [ 120., 174. ]
      - [ 113., 179. ]
      - [ 120., 173. ]
      - [ 120., 173. ]
      - [ 120., 173. ]
      - [ 120., 173. ]
      - [ 120., 173. ]
      - [ 120., 173. ]
      - [ 120., 173. ]
      - [ 120., 173. ]
      - [ 120., 173. ]
      - [ 120., 173. ]
      - [ 120., 173. ]
      - [ 120., 173. ]
      - [ 120., 173. ]
      - [ 120., 173. ]
      - [ 120., 173. ]
      - [ 117., 130. ]
      - [ 118., 128. ]
      - [ 118., 130. ]
      - [ 118., 129. ]
      - [ 118., 122. ]
      - [ 117., 123. ]
      - [ 117., 126. ]
      - [ 118., 131. ]
      - [ 119., 121. ]
      - [ 118., 120. ]
      - [ 116., 123. ]
      - [ 117., 127. ]
      - [ 118., 131. ]
      - [ 119., 119. ]
      - [ 119., 119. ]
      - [ 118., 120. ]
      - [ 117., 123. ]
      - [ 117., 126. ]
      - [ 117., 131. ]
      - [ 119., 120. ]
      - [ 119., 119. ]
      - [ 118., 119. ]
      - [ 118., 123. ]
      - [ 117., 128. ]
      - [ 118., 131. ]
      - [ 118., 130. ]
      - [ 118., 129. ]
      - [ 118., 128. ]
      - [ 118., 126. ]
      - [ 118., 125. ]
      - [ 118., 124. ]
      - [ 123., 124. ]
      - [ 122., 112. ]
      - [ 122., 112. ]
      - [ 121., 114. ]
      - [ 120., 117. ]
      - [ 120., 117. ]
      - [ 119., 119. ]
      - [ 120., 118. ]
      - [ 120., 114. ]
      - [ 120., 114. ]
      - [ 120., 114. ]
      - [ 123., 112. ]
      - [ 123., 112. ]
      - [ 124., 112. ]
      - [ 125., 113. ]
      - [ 124., 112. ]
      - [ 124., 111. ]
      - [ 123., 111. ]
      - [ 123., 111. ]
      - [ 123., 111. ]
      - [ 123., 112. ]
      - [ 125., 113. ]
      - [ 124., 112. ]
      - [ 124., 112. ]
      - [ 124., 112. ]
      - [ 124., 112. ]
      - [ 123., 112. ]
      - [ 123., 112. ]
      - [ 125., 113. ]
      - [ 125., 112. ]
      - [ 125., 112. ]
      - [ 125., 112. ]
      - [ 125., 113. ]
      - [ 125., 113. ]
      - [ 126., 114. ]
      - [ 124., 113. ]
      - [ 124., 112. ]
      - [ 124., 111. ]
      - [ 125., 110. ]
      - [ 124., 110. ]
      - [ 124., 111. ]
      - [ 124., 112. ]
      - [ 125., 113. ]
      - [ 125., 112. ]
      - [ 125., 110. ]
      - [ 125., 110. ]
      - [ 126., 110. ]
      - [ 125., 112. ]
      - [ 126., 113. ]
      - [ 126., 113. ]
      - [ 126., 113. ]
      - [ 121., 116. ]
      - [ 121., 114. ]
      - [ 124., 113. ]
      - [ 124., 112. ]
      - [ 126., 114. ]
      - [ 167., 191. ]
      - [ 168., 191. ]
      - [ 171., 190. ]
      - [ 106., 153. ]
      - [ 103., 147. ]
      - [ 103., 147. ]
      - [ 103., 147. ]
      - [ 103., 145. ]
      - [ 103., 145. ]
      - [ 107., 141. ]
      - [ 103., 145. ]
      - [ 168., 191. ]
      - [ 169., 191. ]
      - [ 170., 189. ]
      - [ 103., 148. ]
      - [ 103., 148. ]
      - [ 105., 143. ]
      - [ 102., 148. ]
      - [ 170., 188. ]
      - [ 103., 146. ]
      - [ 108., 143. ]
      - [ 103., 148. ]
      - [ 104., 144. ]
      - [ 102., 146. ]
      - [ 102., 147. ]
      - [ 103., 148. ]
      - [ 103., 144. ]
      - [ 102., 146. ]
      - [ 101., 145. ]
      - [ 102., 146. ]
      - [ 102., 148. ]
      - [ 111., 141. ]
      - [ 103., 144. ]
      - [ 102., 145. ]
      - [ 102., 146. ]
      - [ 101., 145. ]
      - [ 102., 147. ]
      - [ 102., 148. ]
      - [ 107., 143. ]
      - [ 105., 143. ]
      - [ 102., 146. ]
      - [ 101., 144. ]
      - [ 102., 144. ]
      - [ 103., 144. ]
      - [ 107., 143. ]
      - [ 102., 148. ]
      - [ 114., 142. ]
      - [ 104., 150. ]
      - [ 102., 150. ]
      - [ 102., 150. ]
      - [ 103., 148. ]
      - [ 103., 148. ]
      - [ 103., 148. ]
      - [ 113., 140. ]
      - [ 104., 152. ]
      - [ 103., 151. ]
      - [ 102., 150. ]
      - [ 103., 148. ]
      - [ 103., 148. ]
      - [ 102., 148. ]
      - [ 103., 148. ]
      - [ 103., 148. ]
      - [ 104., 152. ]
      - [ 101., 151. ]
      - [ 101., 152. ]
      - [ 101., 149. ]
      - [ 103., 148. ]
      - [ 103., 149. ]
      - [ 103., 149. ]
      - [ 102., 149. ]
      - [ 102., 148. ]
      - [ 102., 149. ]
      - [ 104., 151. ]
      - [ 101., 151. ]
      - [ 103., 150. ]
      - [ 103., 149. ]
      - [ 103., 148. ]
      - [ 102., 148. ]
      - [ 102., 148. ]
      - [ 102., 150. ]
      - [ 102., 150. ]
      - [ 103., 150. ]
      - [ 103., 148. ]
      - [ 103., 150. ]
      - [ 103., 149. ]
      - [ 103., 148. ]
      - [ 102., 148. ]
      - [ 101., 151. ]
      - [ 101., 151. ]
      - [ 101., 151. ]
      - [ 102., 149. ]
      - [ 103., 148. ]
      - [ 103., 148. ]
      - [ 102., 150. ]
      - [ 102., 150. ]
      - [ 102., 150. ]
      - [ 103., 150. ]
      - [ 103., 148. ]
      - [ 102., 147. ]
      - [ 102., 148. ]
      - [ 102., 148. ]
      - [ 104., 150. ]
      - [ 103., 150. ]
      - [ 103., 151. ]
      - [ 104., 151. ]
      - [ 103., 148. ]
      - [ 103., 148. ]
      - [ 102., 146. ]
      - [ 102., 146. ]
      - [ 102., 147. ]
      - [ 102., 147. ]
      - [ 102., 147. ]
      - [ 102., 148. ]
      - [ 102., 148. ]
      - [ 102., 148. ]
      - [ 102., 150. ]
      - [ 102., 146. ]
      - [ 102., 147. ]
      - [ 101., 148. ]
      - [ 101., 148. ]
      - [ 100., 148. ]
      - [ 102., 148. ]
      - [ 100., 149. ]
      - [ 102., 149. ]
      - [ 102., 150. ]
      - [ 102., 147. ]
      - [ 102., 147. ]
      - [ 100., 147. ]
      - [ 101., 147. ]
      - [ 101., 148. ]
      - [ 102., 148. ]
      - [ 100., 148. ]
      - [ 101., 148. ]
      - [ 101., 151. ]
      - [ 104., 150. ]
      - [ 102., 147. ]
      - [ 102., 147. ]
      - [ 101., 147. ]
      - [ 100., 149. ]
      - [ 100., 148. ]
      - [ 99., 149. ]
      - [ 99., 149. ]
      - [ 100., 150. ]
      - [ 101., 151. ]
      - [ 102., 146. ]
      - [ 102., 147. ]
      - [ 101., 148. ]
      - [ 101., 148. ]
      - [ 100., 149. ]
      - [ 100., 149. ]
      - [ 99., 150. ]
      - [ 100., 151. ]
      - [ 102., 151. ]
      - [ 102., 147. ]
      - [ 101., 148. ]
      - [ 101., 148. ]
      - [ 100., 149. ]
      - [ 100., 148. ]
      - [ 100., 149. ]
      - [ 100., 149. ]
      - [ 102., 151. ]
      - [ 101., 149. ]
      - [ 101., 149. ]
      - [ 99., 150. ]
      - [ 99., 149. ]
      - [ 100., 150. ]
      - [ 100., 149. ]
      - [ 102., 151. ]
      - [ 101., 148. ]
      - [ 101., 148. ]
      - [ 100., 149. ]
      - [ 100., 148. ]
      - [ 100., 150. ]
      - [ 102., 149. ]
      - [ 103., 149. ]
      - [ 102., 148. ]
      - [ 101., 149. ]
      - [ 102., 148. ]
      - [ 99., 149. ]
      - [ 100., 149. ]
      - [ 100., 149. ]
      - [ 103., 149. ]
      - [ 102., 148. ]
      - [ 99., 149. ]
      - [ 100., 149. ]
      - [ 101., 150. ]
      - [ 103., 149. ]
      - [ 101., 150. ]
      - [ 101., 149. ]
      - [ 101., 150. ]
      - [ 101., 150. ]
      - [ 103., 148. ]
      - [ 103., 148. ]
      - [ 103., 148. ]
      - [ 103., 148. ]
      - [ 103., 148. ]
      - [ 103., 148. ]
      - [ 103., 144. ]
      - [ 102., 144. ]
      - [ 102., 145. ]
      - [ 103., 144. ]
      - [ 102., 145. ]
      - [ 102., 145. ]
      - [ 105., 143. ]
      - [ 102., 146. ]
      - [ 102., 146. ]
      - [ 103., 148. ]
      - [ 102., 146. ]
      - [ 102., 147. ]
      - [ 102., 146. ]
      - [ 102., 146. ]
      - [ 102., 146. ]
      - [ 111., 141. ]
      - [ 102., 146. ]
      - [ 105., 153. ]
      - [ 106., 153. ]
      - [ 105., 152. ]
      - [ 105., 152. ]
      - [ 111., 142. ]
      - [ 115., 137. ]
      - [ 102., 149. ]
      - [ 111., 140. ]
      - [ 102., 147. ]
      - [ 117., 137. ]
      - [ 104., 150. ]
      - [ 102., 146. ]
      - [ 104., 151. ]
      - [ 104., 152. ]
      - [ 104., 150. ]
      - [ 104., 150. ]
      - [ 113., 139. ]
      - [ 104., 152. ]
      - [ 103., 149. ]
      - [ 103., 148. ]
      - [ 103., 150. ]
      - [ 103., 149. ]
      - [ 103., 148. ]
      - [ 118., 141. ]
      - [ 105., 154. ]
      - [ 104., 152. ]
      - [ 104., 152. ]
      - [ 104., 151. ]
      - [ 104., 150. ]
      - [ 103., 149. ]
      - [ 103., 150. ]
      - [ 103., 148. ]
      - [ 105., 154. ]
      - [ 105., 152. ]
      - [ 103., 149. ]
      - [ 104., 150. ]
      - [ 113., 139. ]
      - [ 115., 138. ]
      - [ 104., 151. ]
      - [ 104., 151. ]
      - [ 104., 150. ]
      - [ 103., 150. ]
      - [ 105., 152. ]
      - [ 104., 152. ]
      - [ 104., 151. ]
      - [ 108., 157. ]
      - [ 103., 148. ]
      - [ 108., 157. ]
      - [ 108., 156. ]
      - [ 107., 155. ]
      - [ 102., 148. ]
      - [ 103., 148. ]
      - [ 108., 156. ]
      - [ 102., 148. ]
      - [ 101., 148. ]
      - [ 108., 156. ]
      - [ 111., 140. ]
      - [ 113., 139. ]
      - [ 115., 139. ]
      - [ 111., 140. ]
      - [ 107., 156. ]
      - [ 108., 156. ]
      - [ 107., 155. ]
      - [ 107., 155. ]
      - [ 107., 156. ]
      - [ 107., 155. ]
      - [ 107., 155. ]
      - [ 107., 155. ]
      - [ 108., 142. ]
      - [ 109., 142. ]
      - [ 108., 142. ]
      - [ 109., 142. ]
      - [ 115., 137. ]
      - [ 110., 142. ]
      - [ 113., 140. ]
      - [ 111., 140. ]
      - [ 115., 139. ]
      - [ 108., 156. ]
      - [ 108., 156. ]
      - [ 106., 155. ]
      - [ 106., 157. ]
      - [ 108., 157. ]
      - [ 110., 159. ]
      - [ 106., 154. ]
      - [ 105., 156. ]
      - [ 105., 158. ]
      - [ 107., 159. ]
      - [ 105., 155. ]
      - [ 105., 157. ]
      - [ 106., 158. ]
      - [ 108., 159. ]
      - [ 110., 159. ]
      - [ 107., 155. ]
      - [ 106., 157. ]
      - [ 107., 159. ]
      - [ 109., 159. ]
      - [ 109., 160. ]
      - [ 111., 160. ]
      - [ 136., 194. ]
      - [ 135., 194. ]
      - [ 134., 192. ]
      - [ 136., 196. ]
      - [ 138., 199. ]
      - [ 139., 199. ]
      - [ 139., 199. ]
      - [ 170., 183. ]
      - [ 136., 194. ]
      - [ 136., 194. ]
      - [ 135., 193. ]
      - [ 136., 197. ]
      - [ 138., 198. ]
      - [ 139., 198. ]
      - [ 136., 194. ]
      - [ 133., 192. ]
      - [ 135., 196. ]
      - [ 136., 198. ]
      - [ 137., 199. ]
      - [ 139., 198. ]
      - [ 137., 196. ]
      - [ 137., 195. ]
      - [ 133., 190. ]
      - [ 133., 193. ]
      - [ 134., 196. ]
      - [ 135., 198. ]
      - [ 137., 200. ]
      - [ 138., 199. ]
      - [ 139., 199. ]
      - [ 138., 196. ]
      - [ 137., 196. ]
      - [ 131., 187. ]
      - [ 131., 191. ]
      - [ 130., 192. ]
      - [ 131., 190. ]
      - [ 131., 191. ]
      - [ 133., 193. ]
      - [ 134., 195. ]
      - [ 134., 196. ]
      - [ 134., 198. ]
      - [ 135., 200. ]
      - [ 136., 201. ]
      - [ 137., 200. ]
      - [ 139., 199. ]
      - [ 137., 195. ]
      - [ 133., 190. ]
      - [ 131., 195. ]
      - [ 131., 196. ]
      - [ 132., 196. ]
      - [ 133., 196. ]
      - [ 134., 198. ]
      - [ 135., 199. ]
      - [ 135., 200. ]
      - [ 135., 201. ]
      - [ 137., 202. ]
      - [ 137., 201. ]
      - [ 138., 200. ]
      - [ 140., 199. ]
      - [ 169., 183. ]
      - [ 133., 190. ]
      - [ 132., 195. ]
      - [ 133., 198. ]
      - [ 133., 201. ]
      - [ 135., 201. ]
      - [ 136., 201. ]
      - [ 136., 202. ]
      - [ 137., 202. ]
      - [ 137., 202. ]
      - [ 138., 202. ]
      - [ 138., 202. ]
      - [ 139., 200. ]
      - [ 140., 199. ]
      - [ 135., 195. ]
      - [ 135., 200. ]
      - [ 135., 202. ]
      - [ 136., 203. ]
      - [ 137., 202. ]
      - [ 139., 202. ]
      - [ 138., 202. ]
      - [ 138., 202. ]
      - [ 139., 202. ]
      - [ 140., 202. ]
      - [ 140., 200. ]
      - [ 141., 199. ]
      - [ 136., 193. ]
      - [ 136., 200. ]
      - [ 135., 204. ]
      - [ 137., 205. ]
      - [ 139., 203. ]
      - [ 139., 202. ]
      - [ 140., 201. ]
      - [ 140., 201. ]
      - [ 140., 202. ]
      - [ 141., 201. ]
      - [ 161., 188. ]
      - [ 137., 199. ]
      - [ 137., 203. ]
      - [ 138., 203. ]
      - [ 141., 202. ]
      - [ 141., 201. ]
      - [ 141., 200. ]
      - [ 142., 200. ]
      - [ 142., 200. ]
      - [ 142., 200. ]
      - [ 143., 198. ]
      - [ 143., 198. ]
      - [ 144., 197. ]
      - [ 139., 197. ]
      - [ 139., 201. ]
      - [ 140., 201. ]
      - [ 141., 201. ]
      - [ 142., 200. ]
      - [ 142., 200. ]
      - [ 142., 199. ]
      - [ 142., 199. ]
      - [ 143., 198. ]
      - [ 143., 198. ]
      - [ 143., 198. ]
      - [ 144., 196. ]
      - [ 140., 200. ]
      - [ 140., 200. ]
      - [ 141., 199. ]
      - [ 141., 199. ]
      - [ 143., 199. ]
      - [ 144., 197. ]
      - [ 144., 197. ]
      - [ 145., 195. ]
      - [ 147., 193. ]
      - [ 148., 193. ]
      - [ 146., 194. ]
      - [ 146., 193. ]
      - [ 150., 193. ]
      - [ 150., 191. ]
      - [ 149., 192. ]
      - [ 150., 192. ]
      - [ 151., 190. ]
      - [ 152., 190. ]
      - [ 157., 189. ]
      - [ 156., 189. ]
      - [ 140., 188. ]
      - [ 137., 140. ]
      - [ 148., 126. ]
      - [ 149., 125. ]
      - [ 150., 128. ]
      - [ 149., 126. ]
      - [ 150., 126. ]
      - [ 149., 127. ]
      - [ 151., 127. ]
      - [ 152., 128. ]
      - [ 151., 127. ]
      - [ 154., 128. ]
      - [ 153., 129. ]
      - [ 155., 131. ]
      - [ 154., 129. ]
      - [ 156., 131. ]
      - [ 156., 131. ]
      - [ 158., 133. ]
      - [ 158., 133. ]
      - [ 159., 133. ]
      - [ 159., 133. ]
      - [ 159., 134. ]
      - [ 159., 132. ]
      - [ 161., 134. ]
      - [ 159., 132. ]
      - [ 161., 134. ]
      - [ 158., 132. ]
      - [ 158., 132. ]
      - [ 160., 134. ]
      - [ 159., 134. ]
      - [ 158., 132. ]
      - [ 158., 132. ]
      - [ 160., 134. ]
      - [ 164., 137. ]
      - [ 159., 134. ]
      - [ 167., 137. ]
      - [ 167., 136. ]
      - [ 169., 139. ]
      - [ 166., 138. ]
      - [ 170., 141. ]
      - [ 165., 137. ]
      - [ 170., 139. ]
      - [ 173., 143. ]
      - [ 167., 139. ]
      - [ 170., 141. ]
      - [ 171., 142. ]
      - [ 170., 141. ]
      - [ 171., 140. ]
      - [ 171., 140. ]
      - [ 170., 141. ]
      - [ 168., 139. ]
      - [ 168., 139. ]
      - [ 171., 139. ]
      - [ 171., 141. ]
      - [ 171., 140. ]
      - [ 171., 141. ]
      - [ 170., 140. ]
      - [ 168., 139. ]
      - [ 170., 141. ]
      - [ 171., 139. ]
      - [ 172., 141. ]
      - [ 172., 142. ]
      - [ 170., 141. ]
      - [ 170., 140. ]
      - [ 168., 139. ]
      - [ 170., 141. ]
      - [ 171., 142. ]
      - [ 171., 140. ]
      - [ 171., 142. ]
      - [ 172., 142. ]
      - [ 171., 140. ]
      - [ 171., 140. ]
      - [ 172., 142. ]
      - [ 171., 142. ]
      - [ 170., 141. ]
      - [ 171., 142. ]
      - [ 171., 142. ]
      - [ 171., 142. ]
      - [ 173., 143. ]
      - [ 171., 142. ]
      - [ 171., 142. ]
      - [ 171., 142. ]
      - [ 171., 141. ]
      - [ 172., 142. ]
      - [ 173., 180. ]
      - [ 173., 142. ]
      - [ 177., 181. ]
      - [ 181., 180. ]
      - [ 182., 176. ]
      - [ 182., 180. ]
      - [ 179., 181. ]
      - [ 169., 182. ]
      - [ 183., 172. ]
      - [ 182., 175. ]
      - [ 182., 178. ]
      - [ 180., 181. ]
      - [ 173., 183. ]
      - [ 172., 183. ]
      - [ 182., 176. ]
      - [ 180., 178. ]
      - [ 174., 182. ]
      - [ 183., 174. ]
      - [ 183., 161. ]
      - [ 183., 160. ]
      - [ 183., 160. ]
      - [ 183., 161. ]
      - [ 183., 168. ]
      - [ 183., 159. ]
      - [ 183., 153. ]
      - [ 183., 157. ]
      - [ 183., 158. ]
      - [ 182., 157. ]
      - [ 183., 170. ]
      - [ 183., 168. ]
      - [ 184., 169. ]
      - [ 183., 171. ]
   decision_functions:
      -
         sv_count: 1000
         rho: -2.1975046149493500e+02
         alpha: [ 10., 10., 10., 10., 10., 10., 10., 10., 10., 10., 10.,
             10., 10., 10., 10., 10., 10., 10., 10., 10., 10., 10., 10.,
             10., 10., 10., 10., 10., 10., 10., 10., 10., 10., 10., 10.,
             10., 10., 10., 10., 10., 10., 10., 10., 10., 10., 10., 10.,
             10., 10., 2.7757096813354813e+00, 1.2984589630720078e+00,
             1.8762554880724380e-01, 2.1570988023403919e+00, 10., 10.,
             10., 10., 10., 10., 10., 10., 10., 10., 10., 10., 10., 10.,
             10., 10., 10., 10., 10., 10., 10., 10., 10., 10., 10., 10.,
             10., 10., 10., 10., 10., 10., 10., 10., 10., 10., 10., 10.,
             10., 10., 10., 10., 10., 10., 10., 10., 10., 10., 10., 10.,
             10., 10., 10., 10., 10., 10., 10., 10., 10., 10., 10., 10.,
             10., 10., 10., 10., 6.4724910131360485e+00, 10., 10., 10.,
             10., 10., 10., 10., 10., 10., 10., 10., 10., 10., 10., 10.,
             10., 10., 3.8385080798673954e-01, 10., 10., 10., 10., 10.,
             10., 10., 10., 10., 10., 10., 10., 10., 10., 10., 10., 10.,
             10., 10., 10., 10., 10., 10., 10., 10., 10., 10., 10., 10.,
             10., 10., 10., 10., 10., 10., 10., 10., 10., 10., 10., 10.,
             10., 10., 10., 10., 10., 10., 10., 10., 10., 10., 10., 10.,
             10., 10., 10., 10., 10., 10., 10., 10., 10., 10., 10., 10.,
             10., 10., 10., 10., 10., 10., 10., 10., 10., 10., 10., 10.,
             10., 10., 10., 10., 10., 10., 10., 10., 10., 10., 10., 10.,
             10., 10., 10., 10., 10., 10., 10., 10., 10., 10., 10., 10.,
             10., 10., 10., 10., 10., 10., 10., 10., 10., 10., 10., 10.,
             10., 10., 10., 10., 10., 10., 10., 10., 10., 10., 10., 10.,
             10., 10., 10., 10., 10., 10., 10., 10., 10., 10., 10., 10.,
             10., 10., 10., 10., 10., 10., 10., 10., 10., 10., 10., 10.,
             10., 10., 10., 10., 10., 10., 10., 10., 10., 10., 10., 10.,
             10., 10., 10., 10., 10., 10., 10., 10., 10., 10., 10., 10.,
             10., 10., 10., 10., 10., 10., 10., 10., 10., 10., 10., 10.,
             10., 10., 10., 10., 10., 10., 10., 10., 10., 10., 10., 10.,
             10., 10., 10., 10., 10., 10., 10., 10., 10., 10., 10., 10.,
             10., 10., 10., 10., 10., 10., 10., 10., 10., 10., 10., 10.,
             10., 10., 10., 10., 10., 10., 10., 10., 10., 10., 10., 10.,
             10., 10., 10., 10., 10., 10., 10., 10., 10., 10., 10., 10.,
             10., 10., 10., 10., 10., 10., 10., 10., 10., 10., 10., 10.,
             10., 10., 10., 10., 10., 10., 10., 10., 10., 10., 10., 10.,
             10., 10., 10., 10., 10., 10., 10., 10., 10., 10., 10., 10.,
             10., 10., 10., 10., 10., 10., 10., 10., 10., 10., 10., 10.,
             10., 10., 10., 10., 10., 10., 10., 10., 10., 10., 10., 10.,
             10., 10., 10., 10., 10., 10., 10., 10., 10., 10., 10., 10.,
             10., 10., 10., 10., 10., 10., 10., 10., 10., 10., 10., 10.,
             10., 10., 10., 10., 10., 10., 10., 10., 10., 10., 10., 10.,
             10., 10., 10., 10., 10., 10., 10., 10., 10., 10., 10., 10.,
             10., 10., 10., 10., 10., 10., 10., 10., 10., 10., 10., -10.,
             -10., -10., -10., -10., -10., -10., -10., -10., -10., -10.,
             -10., -10., -10., -10., -10., -10., -10., -10., -10., -10.,
             -10., -10., -10., -10., -10., -10., -10., -10., -10., -10.,
             -10., -10., -10., -10., -10., -10., -10., -10., -10., -10.,
             -10., -10., -10., -10., -10., -10., -10., -10., -10., -10.,
             -10., -10., -10., -10., -10., -10., -10., -10., -10., -10.,
             -10., -10., -10., -10., -10., -10., -10., -10., -10., -10.,
             -10., -10., -10., -10., -10., -10., -10., -10., -10., -10.,
             -10., -10., -10., -10., -10., -10., -10., -10., -10., -10.,
             -10., -10., -10., -10., -10., -10., -10., -10., -10., -10.,
             -10., -10., -10., -10., -10., -10., -10., -10., -10., -10.,
             -10., -10., -10., -10., -10., -10., -10., -10., -10., -10.,
             -10., -10., -10., -10., -10., -10., -10., -10., -10., -10.,
             -10., -10., -10., -10., -10., -10., -10., -10., -10., -10.,
             -10., -10., -10., -10., -10., -10., -10., -10., -10., -10.,
             -10., -10., -10., -10., -10., -10., -10., -10., -10., -10.,
             -10., -10., -10., -10., -10., -10., -10., -10., -10., -10.,
             -10., -10., -10., -10., -10., -10., -10., -10., -10., -10.,
             -10., -10., -10., -10., -10., -10., -10., -10., -10., -10.,
             -10., -10., -10., -10., -10., -10., -10., -10., -10., -10.,
             -10., -10., -10., -10., -10., -10., -10., -10., -10., -10.,
             -10., -10., -10., -10., -10., -10., -10., -10., -10., -10.,
             -10., -10., -10., -10., -10., -10., -10., -10., -10., -10.,
             -10., -10., -10., -10., -10., -10., -10., -10., -10., -10.,
             -10., -10., -10., -10., -10., -10., -10., -10., -10., -10.,
             -10., -10., -10., -10., -10., -10., -10., -10., -10., -10.,
             -10., -10., -10., -10., -10., -10., -10., -10., -10., -10.,
             -10., -10., -10., -10., -10., -10., -10., -10., -10., -10.,
             -10., -10., -10., -10., -10., -10., -10., -10., -10., -10.,
             -10., -10., -10., -10., -10., -10., -10., -10., -10., -10.,
             -10., -10., -10., -10., -10., -10., -10., -10., -10., -10.,
             -10., -10., -10., -10., -10., -10., -10., -10., -10., -10.,
             -10., -10., -10., -10., -10., -10., -10., -10., -10., -10.,
             -10., -10., -10., -10., -10., -10., -10., -10., -10., -10.,
             -10., -10., -10., -10., -10., -10., -10., -10., -10., -10.,
             -10., -10., -10., -10., -10., -10., -10., -10., -10., -10.,
             -10., -10., -10., -10., -10., -10., -10., -10., -10., -10.,
             -10., -10., -10., -10., -10., -10., -10., -10., -10., -10.,
             -10., -10., -10., -10., -10., -10., -10., -10., -10., -10.,
             -10., -10., -10., -10., -10., -10., -10., -10., -10., -10.,
             -10., -10., -10., -10., -10., -10., -10., -10., -10., -10.,
             -10., -10., -10., -10., -10., -10., -10., -10., -10., -10.,
             -10., -10., -10., -10., -10., -10., -10., -10., -10., -10.,
             -10., -10., -10., -10., -10., -10., -10., -10., -10., -10.,
             -10., -10., -10., -10., -10., -10., -10., -10., -10., -10.,
             -10., -3.2752348166779113e+00, -10., -10., -10., -10., -10.,
             -10., -10., -10., -10., -10., -10., -10., -10., -10., -10.,
             -10., -10., -10., -10., -10., -10., -10., -10., -10., -10.,
             -10., -10., -10., -10., -10., -10., -10., -10., -10., -10.,
             -10., -10., -10., -10., -10., -10., -10., -10., -10., -10. ]
         index: [ 46, 44, 50, 51, 52, 65, 66, 60, 61, 62, 64, 63, 79, 69,
             70, 71, 72, 73, 74, 75, 76, 77, 78, 80, 81, 82, 83, 68, 67,
             58, 56, 57, 59, 53, 54, 55, 40, 41, 42, 37, 38, 39, 35, 36,
             165, 161, 162, 163, 164, 159, 8, 33, 34, 216, 217, 218, 219,
             239, 240, 241, 242, 243, 244, 238, 230, 220, 221, 222, 223,
             224, 225, 226, 227, 228, 229, 231, 232, 233, 234, 235, 236,
             237, 263, 256, 257, 258, 259, 260, 261, 262, 264, 265, 248,
             245, 246, 247, 249, 250, 251, 252, 253, 254, 255, 195, 193,
             194, 196, 187, 188, 189, 190, 191, 192, 186, 175, 176, 177,
             178, 179, 174, 180, 181, 182, 183, 184, 185, 207, 208, 209,
             210, 211, 212, 213, 214, 215, 206, 203, 197, 198, 199, 200,
             201, 202, 204, 205, 288, 282, 283, 284, 285, 286, 287, 289,
             290, 297, 298, 299, 300, 301, 293, 291, 292, 294, 295, 296,
             302, 303, 304, 305, 306, 307, 308, 309, 317, 310, 311, 312,
             313, 314, 315, 316, 268, 269, 270, 271, 272, 273, 266, 267,
             274, 275, 276, 277, 278, 279, 280, 281, 168, 169, 170, 171,
             172, 173, 167, 480, 481, 482, 493, 483, 484, 485, 486, 487,
             488, 489, 490, 491, 492, 494, 495, 496, 497, 498, 499, 500,
             501, 524, 519, 520, 521, 522, 523, 518, 507, 502, 503, 504,
             505, 506, 508, 509, 510, 511, 512, 513, 514, 515, 516, 517,
             449, 444, 445, 446, 447, 448, 450, 451, 452, 453, 454, 455,
             456, 457, 458, 459, 460, 440, 430, 431, 432, 433, 434, 435,
             436, 437, 438, 439, 429, 441, 442, 443, 428, 461, 462, 463,
             464, 465, 466, 467, 468, 469, 470, 471, 472, 473, 474, 475,
             476, 477, 478, 576, 571, 572, 573, 574, 575, 577, 578, 579,
             580, 581, 582, 583, 584, 585, 586, 587, 588, 589, 590, 591,
             592, 612, 602, 603, 604, 605, 606, 607, 608, 609, 610, 611,
             613, 614, 615, 616, 601, 593, 594, 595, 596, 597, 598, 599,
             600, 545, 535, 536, 537, 538, 539, 540, 541, 542, 543, 544,
             534, 546, 547, 525, 526, 527, 528, 529, 530, 531, 532, 533,
             570, 560, 550, 551, 552, 553, 554, 555, 556, 557, 558, 559,
             549, 561, 562, 563, 564, 565, 566, 567, 568, 569, 548, 348,
             349, 350, 351, 352, 353, 354, 355, 347, 356, 345, 346, 357,
             358, 373, 374, 372, 364, 359, 360, 361, 362, 363, 365, 366,
             367, 368, 369, 370, 371, 333, 334, 335, 332, 326, 327, 328,
             329, 330, 331, 318, 319, 320, 324, 325, 321, 322, 323, 344,
             336, 337, 338, 339, 340, 341, 342, 343, 405, 400, 401, 402,
             403, 404, 406, 407, 408, 409, 410, 411, 412, 422, 423, 424,
             425, 426, 427, 421, 413, 414, 415, 416, 417, 418, 419, 420,
             385, 386, 387, 384, 375, 376, 377, 378, 379, 380, 381, 382,
             383, 390, 391, 392, 393, 394, 395, 396, 397, 398, 399, 389,
             388, 903, 908, 907, 906, 905, 904, 941, 940, 939, 938, 937,
             936, 935, 934, 919, 918, 917, 916, 915, 914, 909, 913, 912,
             911, 910, 933, 932, 931, 930, 929, 928, 927, 920, 926, 925,
             924, 923, 922, 921, 976, 975, 1063, 1076, 1075, 1074, 1073,
             1072, 1071, 1070, 1069, 1068, 1067, 1066, 1065, 1064, 1062,
             1061, 1087, 1094, 1093, 1092, 1091, 1090, 1089, 1088, 1086,
             1085, 1084, 1083, 1082, 1081, 1080, 1079, 1078, 1077, 1032,
             1033, 1045, 1044, 1043, 1042, 1041, 1040, 1039, 1038, 1037,
             1036, 1035, 1034, 1060, 1059, 1058, 1057, 1056, 1055, 1054,
             1053, 1052, 1051, 1050, 1049, 1048, 1047, 1046, 1144, 1158,
             1157, 1156, 1155, 1154, 1153, 1152, 1151, 1150, 1149, 1148,
             1147, 1146, 1145, 1159, 1143, 1142, 1141, 1140, 1139, 1138,
             1160, 1099, 1098, 1097, 1096, 1095, 1100, 1114, 1115, 1113,
             1112, 1111, 1110, 1109, 1108, 1107, 1106, 1105, 1104, 1103,
             1102, 1101, 1128, 1127, 1126, 1125, 1124, 1123, 1122, 1121,
             1120, 1119, 1118, 1117, 1116, 1129, 1137, 1136, 1135, 1134,
             1133, 1132, 1131, 1130, 990, 991, 989, 988, 987, 986, 998,
             997, 996, 995, 994, 993, 992, 980, 979, 978, 977, 985, 984,
             983, 982, 981, 1018, 1017, 1016, 1015, 1014, 1013, 1012,
             1011, 1010, 1009, 1008, 1026, 1031, 1030, 1029, 1028, 1027,
             1025, 1024, 1023, 1022, 1021, 1020, 1019, 1004, 1003, 1002,
             1001, 1000, 999, 1005, 1007, 1006, 777, 776, 775, 789, 802,
             801, 800, 799, 798, 797, 796, 795, 794, 793, 792, 791, 790,
             803, 788, 787, 786, 785, 784, 783, 782, 781, 780, 779, 778,
             812, 811, 810, 809, 808, 807, 806, 805, 804, 756, 755, 754,
             753, 752, 751, 750, 749, 748, 757, 774, 773, 772, 771, 770,
             747, 769, 768, 767, 766, 765, 764, 763, 762, 761, 760, 759,
             758, 852, 851, 850, 849, 848, 847, 846, 845, 844, 829, 837,
             836, 835, 834, 833, 832, 831, 830, 838, 828, 827, 826, 825,
             824, 823, 822, 821, 820, 819, 818, 817, 843, 842, 841, 840,
             839, 816, 815, 814, 813, 721, 720, 719, 718, 717, 716, 715,
             714, 713, 712, 711, 710, 709, 708, 707, 706, 705, 704, 703,
             702, 701, 700, 699, 746, 745, 733, 744, 743, 742, 741, 740,
             739, 738, 737, 736, 735, 734, 732, 731, 730, 729, 728, 727,
             726, 725, 724, 723, 722, 853, 896, 895, 894, 893, 892, 891,
             890, 877, 889, 888, 887, 886, 885, 884, 883, 882, 881, 880,
             879, 878, 876, 875, 874, 873, 872, 871, 870, 869, 868, 867,
             866, 865, 864, 863, 862, 861, 860, 859, 858, 857, 856, 855,
             854, 902, 901, 900, 899, 898, 897, 660, 659, 658, 657, 656,
             655, 652, 651, 650, 649, 667, 666, 665, 664, 663, 662, 639,
             643, 642, 640, 673, 675, 674, 684, 693, 698, 697, 696, 695,
             694, 692, 691, 690, 689, 688, 687, 682, 681, 680, 679, 678,
             677, 672, 671, 670, 669, 668, 634, 633, 632, 631, 630, 638,
             637, 636, 635, 628, 627, 626, 625, 624, 619, 618, 617, 620,
             623, 622, 621, 629 ]
      -
         sv_count: 497
         rho: -2.6148957743766141e+02
         alpha: [ 10., 10., 10., 10., 10., 10., 10., 10., 10., 10., 10.,
             10., 10., 10., 10., 10., 10., 10., 10., 10., 10., 10., 10.,
             10., 10., 10., 10., 10., 10., 10., 10., 10., 10., 10., 10.,
             10., 10., 10., 10., 10., 10., 10., 10., 10., 10., 10., 10.,
             10., 10., 10., 10., 10., 10., 10., 10., 10., 10., 10., 10.,
             10., 10., 10., 10., 10., 10., 10., 10., 10., 10., 10., 10.,
             10., 10., 10., 10., 10., 10., 10., 10., 10., 10., 10., 10.,
             10., 10., 10., 10., 10., 10., 10., 10., 10., 10., 10., 10.,
             10., 10., 10., 10., 10., 10., 10., 10., 10., 10., 10., 10.,
             10., 10., 10., 10., 10., 10., 10., 10., 10., 10., 10., 10.,
             10., 10., 10., 10., 10., 10., 10., 10., 10., 10., 10., 10.,
             10., 10., 10., 10., 10., 10., 10., 10., 10., 10., 10., 10.,
             10., 10., 10., 10., 10., 10., 6.4969685697873503e-01,
             8.9648705505010930e+00, 10., 10., 10., 10., 10., 10., 10.,
             10., 10., 10., 10., 10., 10., 10., 10., 10., 10., 10., 10.,
             10., 10., 10., 10., 10., 10., 10., 10., 10., 10., 10., 10.,
             10., 6.0485964844359907e+00, 10., 10., 10., 10., 10., 10.,
             10., 10., 10., 10., 10., 10., 10., 10., 10., 10., 10., 10.,
             10., 10., 10., 10., 10., 10., 10., 10., 10., 10., 10., 10.,
             10., 10., 10., 10., 1.6234621315927806e+00,
             6.6181074741985997e+00, 2.3020702633763799e+00,
             3.1783335435669393e+00, 3.7793864388237823e+00, 10., 10.,
             10., 10., 10., 10., 10., 10., 10., 10., 10., 10., 10., 10.,
             10., 9.9619619147304768e+00, 10., 10., 10., 10., 10.,
             4.7833859328126538e+00, 10., 10., 10., 10., 10., 10., -10.,
             -10., -10., -10., -10., -10., -10., -10., -10., -10., -10.,
             -10., -10., -10., -10., -10., -10., -10., -10., -10., -10.,
             -10., -10., -10., -10., -10., -10., -10., -10., -10., -10.,
             -10., -10., -10., -10., -10., -10., -10., -10., -10., -10.,
             -10., -10., -10., -10., -10., -10., -10., -10., -10., -10.,
             -10., -10., -10., -10., -10., -10., -10., -10., -10., -10.,
             -10., -10., -10., -10., -10., -10., -10., -10., -10., -10.,
             -10., -10., -10., -10., -10., -10., -10., -10., -10., -10.,
             -10., -10., -9.6373322771220877e+00, -10., -10., -10., -10.,
             -10., -10., -10., -10., -10., -10., -10., -10., -10., -10.,
             -10., -10., -10., -10., -10., -10., -10., -10., -10., -10.,
             -10., -10., -10., -10., -10., -10., -10., -10., -10., -10.,
             -10., -10., -10., -10., -10., -10., -10., -10., -10., -10.,
             -10., -10., -10., -10., -10., -10., -10., -10., -10., -10.,
             -10., -10., -10., -10., -10., -10., -10., -10., -10., -10.,
             -10., -10., -10., -10., -10., -10., -10., -10., -10., -10.,
             -10., -10., -10., -10., -10., -10., -10., -10., -10., -10.,
             -10., -10., -10., -10., -10., -10., -10., -10., -10., -10.,
             -10., -10., -10., -10., -10., -10., -10., -10., -10., -10.,
             -10., -10., -10., -10., -10., -10., -10., -10., -10., -10.,
             -10., -10., -10., -10., -10., -10., -10., -10., -10., -10.,
             -10., -10., -10., -10., -10., -10., -10., -10., -10., -10.,
             -10., -10., -10., -10., -10., -10., -10., -10., -10., -10.,
             -10., -10., -10., -10., -10., -10., -10., -10., -10., -10.,
             -10., -10., -10., -10., -10., -8.2725393138953578e+00, -10.,
             -10. ]
         index: [ 46, 44, 45, 47, 50, 48, 49, 51, 52, 65, 66, 60, 61, 62,
             64, 63, 79, 69, 70, 71, 72, 73, 74, 75, 76, 77, 78, 80, 81,
             82, 83, 68, 67, 58, 56, 57, 59, 53, 54, 55, 40, 41, 42, 37,
             38, 39, 35, 36, 165, 161, 162, 163, 164, 159, 160, 166, 132,
             133, 134, 135, 137, 136, 125, 116, 117, 118, 119, 120, 121,
             122, 123, 124, 126, 127, 128, 129, 130, 131, 98, 87, 84, 85,
             86, 88, 89, 90, 91, 92, 93, 94, 95, 96, 97, 115, 100, 101,
             102, 103, 104, 105, 106, 99, 107, 108, 109, 110, 111, 112,
             113, 114, 152, 151, 153, 154, 146, 147, 149, 150, 148, 157,
             158, 155, 156, 142, 143, 138, 139, 141, 140, 145, 144, 21,
             20, 18, 19, 15, 14, 13, 16, 17, 12, 0, 4, 5, 6, 7, 3, 1, 2,
             8, 22, 239, 240, 241, 242, 238, 222, 236, 237, 263, 259,
             260, 261, 262, 187, 191, 192, 186, 176, 177, 185, 208, 209,
             211, 212, 213, 198, 199, 200, 201, 202, 205, 290, 297, 298,
             299, 293, 291, 292, 294, 295, 296, 310, 311, 312, 313, 314,
             315, 316, 268, 269, 270, 271, 272, 273, 276, 277, 278, 279,
             280, 281, 168, 169, 170, 171, 172, 173, 167, 480, 493, 483,
             490, 495, 479, 502, 460, 478, 571, 572, 615, 616, 593, 594,
             595, 596, 547, 525, 570, 548, 356, 357, 358, 373, 374, 372,
             333, 334, 335, 324, 325, 344, 1539, 1548, 1547, 1546, 1545,
             1544, 1543, 1542, 1541, 1540, 1549, 1538, 1537, 1536, 1535,
             1520, 1519, 1518, 1517, 1516, 1515, 1514, 1504, 1513, 1512,
             1511, 1510, 1509, 1508, 1507, 1506, 1505, 1503, 1521, 1522,
             1532, 1534, 1533, 1531, 1530, 1529, 1528, 1527, 1526, 1525,
             1524, 1523, 1575, 1574, 1573, 1572, 1571, 1570, 1555, 1554,
             1553, 1552, 1551, 1550, 1556, 1560, 1559, 1558, 1557, 1569,
             1568, 1567, 1566, 1565, 1564, 1563, 1562, 1561, 1463, 1462,
             1461, 1460, 1451, 1476, 1475, 1474, 1473, 1472, 1471, 1477,
             1430, 1432, 1431, 1429, 1445, 1444, 1443, 1442, 1441, 1440,
             1450, 1449, 1448, 1500, 1499, 1498, 1497, 1496, 1495, 1494,
             1501, 1502, 1478, 1479, 1485, 1484, 1483, 1482, 1481, 1480,
             1489, 1493, 1492, 1491, 1490, 1488, 1487, 1486, 1579, 1578,
             1577, 1384, 1385, 1374, 1380, 1379, 1378, 1377, 1376, 1375,
             1373, 1393, 1392, 1361, 1371, 1368, 1367, 1366, 1365, 1364,
             1363, 1362, 1372, 1410, 1414, 1413, 1412, 1411, 1428, 1427,
             1426, 1425, 1424, 1423, 1397, 1396, 1395, 1394, 1404, 1403,
             1402, 1347, 1346, 1355, 1354, 1353, 1352, 1351, 1350, 1360,
             1359, 1358, 1357, 1356, 1349, 1348, 1221, 1222, 1219, 1220,
             1202, 1217, 1216, 1215, 1213, 1212, 1211, 1210, 1209, 1214,
             1208, 1207, 1206, 1205, 1204, 1203, 1226, 1225, 1244, 1243,
             1242, 1241, 1240, 1249, 1248, 1247, 1246, 1245, 1230, 1229,
             1228, 1227, 1239, 1238, 1237, 1236, 1235, 1232, 1234, 1233,
             1231, 1250, 1253, 1252, 1251, 1255, 1254, 1312, 1313, 1303,
             1305, 1340, 1339, 1343, 1342, 1341, 1280, 1282, 1281, 1292,
             1296 ]
      -
         sv_count: 11
         rho: -1.6694789665069710e+01
         alpha: [ 10., 10., 10., 4.8262838379058692e+00, 10., -10., -10.,
             -10., -10., -1.6179317197275048e-01,
             -4.6644906659331182e+00 ]
         index: [ 51, 52, 65, 66, 479, 2157, 2158, 2159, 2160, 2161,
             1809 ]
      -
         sv_count: 406
         rho: -5.6421147462977217e+01
         alpha: [ 10., 10., 3.8320448360435271e+00,
             5.2941296223886853e+00, 10., 10., 10., 10., 10., 10., 10.,
             10., 10., 10., 10., 10., 10., 10., 10., 10., 10., 10., 10.,
             10., 10., 10., 10., 10., 10., 10., 10., 10., 10., 10., 10.,
             10., 10., 10., 10., 10., 5.1956548268207268e+00, 10., 10.,
             10., 10., 10., 10., 10., 10., 10., 10., 10., 10., 10., 10.,
             10., 10., 10., 10., 10., 10., 10., 10., 10., 10., 10., 10.,
             10., 10., 10., 10., 10., 10., 10., 10., 10., 10., 10., 10.,
             10., 10., 10., 10., 10., 10., 10., 10., 10., 10., 10., 10.,
             10., 10., 10., 10., 10., 10., 10., 10., 10., 10., 10., 10.,
             10., 10., 10., 10., 10., 10., 10., 10., 10., 10., 10., 10.,
             10., 6.6295588237072334e+00, 10., 10., 10.,
             3.6426451745270843e+00, 4.6592120106590738e+00, 10., 10.,
             5.7833168811307853e+00, 10., 10., 10., 10., 10., 10., 10.,
             10., 7.3164768555657700e+00, 10., 10., 10., 10., 10., 10.,
             10., 10., 10., 10., 10., 10., 10., 10., 10., 10., 10., 10.,
             10., 10., 10., 7.5503892886944612e+00, 10., 10., 10., 10.,
             10., 10., 10., 10., 10., 10., 10., 10., 10., 10., 10., 10.,
             10., 10., 10., 10., 10., 10., 7.8615551746245620e+00,
             2.7786146295049128e+00, 8.0651201268833095e+00, 10., 10.,
             10., 10., 10., 10., 10., 10., 10., 10., 10., 10., 10., 10.,
             10., 10., 10., 10., 10., 10., 10., 10., 10., -10., -10.,
             -10., -10., -10., -10., -10., -10., -10., -10., -10., -10.,
             -10., -10., -10., -10., -10., -9.4367168605707246e+00, -10.,
             -10., -10., -10., -10., -10., -10., -10., -10., -10., -10.,
             -10., -10., -10., -10., -10., -10., -10., -10., -10., -10.,
             -10., -10., -10., -10., -10., -10., -10., -10., -10., -10.,
             -10., -10., -10., -10., -10., -10., -10., -10., -10., -10.,
             -10., -10., -10., -10., -10., -10., -10., -10., -10., -10.,
             -10., -10., -10., -10., -10., -10., -10., -10., -10., -10.,
             -10., -10., -10., -10., -9.4267706764402242e+00, -10., -10.,
             -10., -10., -10., -10., -10., -10., -10., -10., -10., -10.,
             -10., -10., -10., -2.9979914277389428e+00,
             -4.5925829086957055e+00, -10., -10., -10., -10., -10., -10.,
             -10., -10., -10., -10., -10., -10., -10., -10., -10., -10.,
             -10., -10., -10., -10., -10., -10., -10., -10., -10., -10.,
             -10., -10., -10., -10., -10., -10., -10., -10., -10., -10.,
             -10., -10., -10., -10., -10., -10., -10., -10., -10., -10.,
             -10., -10., -10., -10., -10., -10., -10., -10., -10., -10.,
             -10., -10., -10., -10., -10., -10., -10., -10., -10., -10.,
             -10., -10., -10., -10., -10., -10., -10., -10., -10.,
             -6.4968054031031919e+00, -10., -10., -10., -10., -10., -10.,
             -10., -10., -10., -10., -10., -10., -10., -10., -10., -10.,
             -10., -10., -10., -10., -4.3861921967504989e+00, -10., -10.,
             -10., -1.2716587772508379e+00 ]
         index: [ 46, 44, 45, 50, 51, 52, 65, 66, 60, 61, 62, 64, 63, 79,
             69, 70, 71, 72, 73, 74, 75, 76, 77, 78, 80, 81, 82, 83, 68,
             67, 58, 56, 57, 59, 53, 54, 55, 40, 41, 42, 43, 37, 38, 39,
             35, 36, 165, 161, 162, 163, 164, 159, 160, 166, 132, 133,
             134, 135, 137, 136, 125, 116, 117, 118, 119, 120, 121, 122,
             123, 124, 126, 127, 128, 129, 130, 131, 98, 87, 84, 85, 86,
             88, 89, 90, 91, 92, 93, 94, 95, 96, 97, 115, 100, 101, 102,
             103, 104, 105, 106, 99, 107, 108, 109, 110, 111, 112, 113,
             114, 152, 151, 153, 154, 146, 147, 149, 150, 148, 8, 10, 11,
             9, 33, 34, 31, 32, 22, 23, 24, 25, 26, 27, 28, 29, 30, 239,
             240, 241, 242, 238, 222, 236, 237, 263, 259, 260, 261, 262,
             187, 191, 192, 186, 176, 177, 185, 208, 209, 211, 212, 213,
             199, 200, 201, 202, 205, 290, 295, 296, 310, 311, 315, 316,
             271, 172, 173, 167, 480, 481, 482, 483, 487, 490, 479, 507,
             502, 503, 460, 478, 571, 572, 615, 616, 593, 594, 595, 596,
             547, 525, 570, 548, 356, 373, 374, 372, 386, 2790, 2823,
             2822, 2821, 2820, 2819, 2818, 2829, 2831, 2830, 2827, 2826,
             2825, 2824, 2828, 2812, 2811, 2810, 2809, 2817, 2816, 2815,
             2814, 2813, 2848, 2847, 2846, 2845, 2844, 2843, 2842, 2839,
             2841, 2840, 2838, 2837, 2857, 2856, 2855, 2854, 2853, 2852,
             2851, 2850, 2849, 2835, 2834, 2836, 2833, 2832, 2794, 2795,
             2792, 2793, 2791, 2805, 2808, 2807, 2806, 2798, 2797, 2796,
             2804, 2803, 2802, 2801, 2800, 2799, 2871, 2870, 2869, 2868,
             2874, 2872, 2865, 2864, 2863, 2862, 2861, 2860, 2859, 2858,
             2867, 2866, 2387, 2386, 2394, 2418, 2417, 2411, 2402, 2401,
             2403, 2481, 2480, 2479, 2478, 2477, 2476, 2475, 2462, 2460,
             2458, 2457, 2456, 2471, 2470, 2469, 2467, 2465, 2505, 2504,
             2503, 2502, 2501, 2500, 2499, 2490, 2489, 2488, 2487, 2486,
             2485, 2484, 2498, 2497, 2496, 2495, 2494, 2493, 2492, 2427,
             2426, 2425, 2523, 2522, 2521, 2506, 2510, 2509, 2508, 2507,
             2514, 2518, 2517, 2516, 2528, 2527, 2526, 2525, 2332, 2331,
             2330, 2317, 2323, 2322, 2321, 2320, 2319, 2318, 2316, 2329,
             2328, 2327, 2326, 2325, 2324, 2315, 2314, 2313, 2312, 2311,
             2310, 2335, 2336, 2337, 2284, 2296, 2302, 2301, 2300, 2299,
             2298, 2297, 2295, 2306, 2309, 2308, 2307, 2305, 2304, 2303,
             2294, 2293, 2646, 2641, 2640, 2638, 2637, 2636, 2606, 2712 ]
      -
         sv_count: 228
         rho: 1.9776795320270764e+01
         alpha: [ 10., 10., 10., 10., 10., 10., 10., 10., 10., 10., 10.,
             10., 10., 10., 10., 10., 10., 10., 10., 10., 10.,
             9.1531166209559309e+00, 7.0636838271497506e+00,
             4.2177094314461918e+00, 10., 10., 10.,
             7.7677619902807002e+00, 10., 8.6886561531350059e-01,
             1.9297575689658579e+00, 10., 10., 10., 10., 10., 10., 10.,
             10., 10., 10., 3.8823972622081016e-01, 10., 10., 10., 10.,
             10., 10., 10., 10., 10., 10., 10., 10., 10., 10., 10., 10.,
             10., 10., 10., 10., 10., 10., 10., 10., 10., 10., 10., 10.,
             10., 10., 10., 10., 10., 10., 10., 10., 10., 10.,
             7.9531777184613963e+00, 10., 10., 10., 10., 10., 10., 10.,
             5.4378265800136019e+00, 10., 10., 10., 10., 10., 10., 10.,
             10., 10., 6.7112337535776874e+00, 10.,
             3.2415235296946698e+00, 3.6668478954286760e-01,
             4.8852948962502363e-01, 6.5079470547480414e+00, 10.,
             6.9112041939806135e+00, 10., 10., -7.5169292742100335e+00,
             -10., -1.7344674856796889e+00, -10., -10.,
             -2.8647198321704255e+00, -10., -10., -10., -10., -10., -10.,
             -10., -2.4362308249534106e+00, -5.4178766925000996e+00,
             -10., -10., -4.9176244106514719e+00, -10., -10.,
             -2.5868033493575533e+00, -10., -10., -10., -10., -10., -10.,
             -10., -10., -10., -10., -10., -10., -10., -10., -10., -10.,
             -9.1531166209559309e+00, -10., -10., -10., -10.,
             -6.4788540740585177e-01, -6.5179409189902024e+00, -10.,
             -10., -10., -10., -10., -10., -10., -10., -10., -10., -10.,
             -10., -10., -10., -10., -10., -10., -10.,
             -1.5575016769567593e+00, -1.4110390701611233e+00,
             -3.4265140055151115e+00, -2.3382003455406264e+00,
             -2.8934211324170578e+00, -5.5005431075002220e-01, -10.,
             -10., -4.5185757682645926e+00, -3.2348813976238597e+00,
             -10., -3.9887717659305149e+00, -5.6745575066874876e+00,
             -3.4338097495887214e+00, -10., -8.0090170028352290e+00,
             -2.5560591196551026e+00, -7.9502944770834194e+00, -10.,
             -10., -10., -10., -10., -10., -2.6854161955731382e+00,
             -3.4527564979515644e+00, -2.7932817276614017e+00, -10.,
             -10., -1.8980062559160367e+00, -1.6266676994237230e+00,
             -10., -10., -10., -10., -10., -10., -6.6271974552472672e+00,
             -10., -10., -10., -10., -10., -10., -10., -10., -10., -10.,
             -10., -10., -10., -10., -2.0862854669855340e+00, -10.,
             -2.5013584453336879e+00, -10., -10., -10. ]
         index: [ 949, 948, 946, 947, 945, 953, 952, 951, 957, 956, 955,
             954, 950, 964, 963, 966, 965, 960, 959, 958, 962, 961, 942,
             974, 972, 971, 970, 973, 969, 968, 967, 1070, 1069, 1068,
             1067, 1066, 1065, 1085, 1084, 1083, 1082, 1081, 1040, 1039,
             1038, 1037, 1036, 1035, 1055, 1054, 1053, 1052, 1051, 1050,
             1049, 1153, 1152, 1151, 1150, 1128, 1129, 1130, 987, 986,
             994, 993, 992, 1009, 1008, 1025, 1024, 1023, 1001, 1000,
             999, 801, 799, 798, 765, 763, 759, 852, 851, 850, 849, 848,
             828, 843, 842, 739, 738, 737, 853, 887, 886, 874, 866, 855,
             854, 898, 656, 661, 641, 683, 684, 686, 685, 676, 1548,
             1515, 1514, 1556, 1567, 1459, 1458, 1457, 1456, 1455, 1454,
             1453, 1452, 1465, 1464, 1470, 1469, 1468, 1443, 1433, 1439,
             1438, 1437, 1436, 1435, 1434, 1450, 1497, 1478, 1479, 1489,
             1488, 1584, 1383, 1382, 1381, 1390, 1391, 1389, 1388, 1387,
             1386, 1370, 1369, 1407, 1406, 1405, 1409, 1408, 1426, 1421,
             1422, 1420, 1419, 1418, 1417, 1416, 1415, 1399, 1401, 1400,
             1398, 1357, 1345, 1600, 1599, 1598, 1597, 1591, 1590, 1589,
             1593, 1592, 1587, 1588, 1586, 1585, 1196, 1195, 1194, 1193,
             1201, 1200, 1199, 1198, 1197, 1190, 1192, 1191, 1211, 1210,
             1189, 1186, 1188, 1187, 1181, 1183, 1182, 1185, 1184, 1180,
             1179, 1178, 1169, 1168, 1167, 1173, 1172, 1171, 1170, 1174,
             1166, 1165, 1164, 1163, 1162, 1175, 1177, 1176, 1161 ]
      -
         sv_count: 410
         rho: 5.0690616271208427e+02
         alpha: [ 10., 10., 10., 10., 10., 10., 10., 10., 10., 10., 10.,
             10., 10., 10., 10., 10., 10., 10., 10., 10., 10., 10., 10.,
             10., 10., 10., 10., 10., 10., 10., 10., 10., 10., 10., 10.,
             10., 10., 10., 10., 10., 10., 10., 10., 10., 10., 10., 10.,
             10., 10., 10., 10., 10., 10., 10., 10., 10., 10., 10., 10.,
             10., 10., 10., 10., 10., 10., 10., 10., 10., 10., 10., 10.,
             10., 10., 10., 10., 10., 10., 10., 10., 10., 10., 10., 10.,
             10., 10., 10., 10., 10., 10., 10., 10., 10., 10., 10., 10.,
             10., 10., 10., 10., 10., 10., 10., 10., 10., 10., 10., 10.,
             10., 10., 10., 10., 10., 10., 10., 10., 10., 10., 10., 10.,
             10., 10., 10., 10., 10., 10., 10., 10., 10., 10., 10., 10.,
             10., 10., 10., 10., 10., 10., 10., 10., 10., 10., 10., 10.,
             10., 10., 10., 10., 10., 10., 10., 10., 10., 10., 10., 10.,
             10., 10., 5.8936874768091148e+00, 10., 10., 10., 10., 10.,
             10., 10., 10., 10., 10., 10., 10., 10., 10., 10., 10., 10.,
             10., 10., 10., 10., 10., 10., 10., 10., 10., 10., 10., 10.,
             10., 10., 10., 10., 10., 10., 10., 10., 10., 10., 10., 10.,
             10., 10., 10., 8.4864398424439127e+00, 10.,
             -6.5407967280948718e+00, -10., -10., -10., -10., -10., -10.,
             -10., -10., -10., -10., -10., -10., -10., -10., -10., -10.,
             -10., -10., -6.9901835006200690e+00, -10., -10., -10., -10.,
             -10., -10., -10., -10., -10., -10., -10., -10., -10., -10.,
             -2.6907908871210320e+00, -10., -10., -10., -10., -10., -10.,
             -10., -10., -10., -10., -10., -10., -9.8490461910744607e+00,
             -10., -10., -10., -10., -10., -10., -10., -10., -10., -10.,
             -10., -10., -10., -10., -10., -10., -10., -10., -10., -10.,
             -10., -10., -10., -10., -10., -10., -10., -10., -10., -10.,
             -10., -10., -10., -10., -10., -10., -10., -10., -10., -10.,
             -10., -10., -10., -10., -10., -10., -10., -10., -10., -10.,
             -10., -10., -10., -10., -10., -10., -10., -10., -10., -10.,
